9996 16
. -0.010890243 -0.09004343 -0.041367967 -0.0075700916 0.026318816 -0.047293264 -0.007147284 -0.1186462 0.07223323 0.01817985 -0.036171883 0.054791056 0.017440818 0.0012886743 -0.0395379 0.0028670852
영화 -0.030179046 -0.07007594 0.0680505 0.016698344 0.10345106 -0.056338802 0.025101135 -0.2436022 0.09030874 0.03763824 -0.031248217 0.01750773 0.05563248 -0.014462332 -0.032333635 0.022200374
다 -0.06860064 -0.10013831 0.042903364 -0.034353424 0.003871511 -0.039863646 -0.03160342 -0.14809838 -0.014113251 0.0032654877 0.003210811 0.016339121 -0.045552142 -0.056381125 -0.042356465 -0.04806116
고 -0.024647314 -0.091858156 -0.005948116 0.0015591339 -0.03879545 -0.023525046 -0.052156128 0.06869055 -0.005547951 0.0030420169 -0.04781774 -0.0073499577 0.00077429134 -0.043632973 -0.019241983 -0.081379816
하 0.025898132 -0.08978342 0.00850286 0.016866451 0.026341522 -0.00049411634 0.066453084 0.005065779 0.0075374185 0.010418953 0.03137839 0.0007073939 -0.027701277 -0.008471688 -0.07861588 0.013250629
을 0.031808212 -0.070984 -0.016950008 0.049838405 -0.020223219 0.07329914 0.022983618 0.02050208 -0.0036187703 0.0016406245 0.001916426 -0.019045154 -0.02062359 0.0071727075 -0.018187083 -0.03439836
보 0.021184858 0.0020218382 0.01694949 -0.010096381 0.016580654 0.04560146 0.0057495474 0.060626443 0.03258887 0.0464488 -0.03728432 0.046696056 -0.025383113 -0.01662282 0.030761302 0.034612156
.. 0.039681323 -0.023899948 -0.06364618 -0.0012149159 -0.038674153 0.0018405203 0.0205366 -0.038107008 -0.005574327 0.06500543 0.031970743 0.068177395 -0.0076524457 0.049744666 0.01685508 -0.025570013
게 -0.049513146 -0.060117032 -0.0060628 0.053702474 0.010867348 0.01750113 -0.03232941 -0.06031232 -0.050179653 -0.00777319 0.010396584 0.007821866 -0.024024568 0.0012735625 0.05419577 -0.00023880921
, 0.015583159 -0.035704136 0.009343795 -0.015746705 -0.031670187 -0.028402543 -0.024545211 -0.027940279 -0.041262712 -0.008031082 0.0123090185 -0.046786416 0.030845217 -0.018283123 -0.030208476 -0.04688246
! -0.019064311 -0.004995009 0.018277878 -0.0073617785 0.04393494 -0.12738489 0.05763786 -0.18813163 0.047709927 -0.025656922 -0.020636916 0.025037775 0.028897421 -0.08376588 0.07938608 0.025662525
지 0.10589824 0.18737026 -0.052701402 -0.016349172 -0.10316716 0.016844094 0.024118928 0.10808353 -0.031754006 0.05629532 0.038756613 0.038263276 0.075368114 0.016635612 -0.009281538 0.053141776
있 0.016851155 -0.015875187 0.0010400051 0.024643565 0.069534265 0.03549857 -0.049998797 0.12142522 -0.02261916 -0.06887956 -0.01466568 -0.04245661 -0.057104666 -0.08199108 0.07370701 0.056612186
없 0.08157533 0.069625445 -0.14029893 -0.062433794 -0.14658159 0.07456074 0.101834446 -0.085832044 0.077938564 0.09224729 0.11090861 0.012632659 -0.065272786 0.22310725 -0.1564032 -0.055177797
? 0.072851054 -0.042294644 -0.041856892 -0.035242975 -0.06839446 0.020054491 0.038668234 0.019869387 0.027190331 0.055938862 0.0771584 -0.008807193 -0.008292178 0.051837668 -0.14239646 0.0779949
좋 -0.0747602 -0.07865006 0.06780906 0.048457045 0.043846052 -0.20097587 -0.13802809 -0.042763162 -0.14006211 0.0034362662 -0.13787459 -0.005077706 0.0070870644 -0.099569276 0.13596642 0.011123983
나 0.037033107 0.0595118 -0.021545665 -0.02557632 -0.000651971 0.03258028 -0.0354048 0.103015035 0.0069287433 0.077987164 0.036857273 -0.029721458 -0.0025255792 -0.042211957 0.07096676 -0.022120707
었 -0.074048735 -0.074891284 0.061751377 0.016990384 0.0068083727 -0.03001213 -0.0054097027 -0.06429508 0.026903339 0.009394358 0.009798778 0.045338202 0.028032316 -0.050724108 -0.018330073 0.015516991
만 0.054670166 -0.18921761 -0.011518083 0.008283355 0.0090880245 0.029862113 0.023393324 -0.08283764 0.13346694 -0.011004669 0.08204896 -0.048300024 -0.032338683 0.035879973 -0.14139794 0.04409148
는데 0.038163666 0.21521704 0.0039653014 0.033012528 0.0015795713 0.14383753 -0.05150823 0.20053363 -0.053709954 0.07283069 0.02681008 0.0045489008 0.03265072 0.002908055 0.06137045 -0.038461022
너무 -0.025874728 0.26768175 -0.042707294 0.08254205 0.0044087437 -0.12001187 0.021043321 -0.13403676 -0.04369187 0.079315074 0.0028305715 0.023208182 -0.053759277 0.08848585 0.120657906 -0.25928292
봤 -0.095078155 -0.0059262617 0.05131643 0.048913695 0.038179554 -0.11783821 0.006813465 -0.049459722 -0.015102942 0.04731024 -0.04320265 -0.014230518 0.028759852 0.011407085 0.08001528 -0.12138156
적 -0.034871224 -0.11493347 0.007503208 0.0738794 -0.01843637 -0.017061574 -0.009432952 0.026430583 0.03973966 -0.028372675 -0.009278329 -0.008494951 0.009798103 0.002795372 -0.007254083 -0.048877914
안 0.094576895 -0.20344622 -0.07614186 -0.054167535 -0.10992297 0.20450114 -0.0084161665 0.00063411717 0.15810595 -0.001292133 0.13054353 0.016023831 -0.049176387 -0.024020731 -0.18712364 0.07416085
정말 -0.10366389 0.051704716 0.004416292 0.020498337 0.05132889 0.0067218514 -0.011279627 0.03965114 -0.048450857 0.04068447 -0.08095282 0.036115073 0.010506703 -0.058797028 0.086291194 -0.10036118
로 0.0012430664 0.016717149 -0.0067827073 -0.04699933 -0.037720013 0.023890134 -0.021503625 -0.08575034 0.06515414 0.04373834 0.014501155 -0.058373608 -0.028787885 0.004760931 -0.035387613 0.004949675
음 -0.03610343 -0.19446033 -0.029498208 -0.008713538 0.05317745 -0.11324724 -0.03606088 -0.34430084 0.080800384 -0.030772127 -0.023563845 -0.04449893 0.031353842 -0.038508598 -0.048994895 0.014860454
것 0.040892974 -0.023369495 -0.0049199113 0.03208652 -0.025633663 0.057738088 -0.02591714 0.05943517 -0.06564956 0.03735361 -0.0363409 0.03297661 -0.06293266 -0.00608071 -0.035453234 0.023248252
아 -0.019255513 -0.0046113143 0.016633209 -0.0012278579 -0.040402364 0.077337496 0.007799874 0.040377475 -0.0114280395 0.011566992 -0.011281909 0.034134578 -0.036305696 0.03230776 -0.005551402 -0.0033288675
네요 0.01440879 -0.17519309 0.030959802 0.016519077 0.043023206 -0.13387397 0.021713087 -0.2523846 0.05721351 -0.03560309 -0.022008836 0.024196208 -0.053808935 -0.08313658 0.046916522 0.0034209979
재밌 -0.10118683 -0.1799817 0.16441695 0.15742382 0.13227488 -0.124008454 -0.17952164 0.00016407442 -0.11541577 -0.11396855 -0.09298395 0.13194601 0.11805894 -0.22348453 0.22948699 0.17653334
어 -0.045143794 -0.104419135 -0.023686163 0.037114143 -0.041020866 0.065117665 -0.039069317 -0.03078146 -0.039172526 -0.04128845 -0.05795693 0.008169722 -0.016338808 0.025660943 -0.016179074 -0.040869307
같 -0.022071045 -0.053196844 0.020275334 -0.009611119 -0.064887464 -0.01066872 0.03916663 0.046687547 -0.007621398 0.064657174 -0.0051465784 0.000835418 -0.0071710953 -0.013116239 0.0009897631 -0.016353363
점 -0.045032132 -0.28088602 0.04889872 -0.05458261 0.0043744748 -0.037877258 -0.02524315 -0.48204333 0.13236627 -0.08480399 0.04125973 -0.035930738 0.047790036 -0.032258738 -0.050669294 0.033033233
지만 0.08170747 0.44968724 -0.034788515 0.06831839 -0.10037246 0.22247691 0.0071382034 0.35630745 -0.13712348 0.023505097 -0.004470181 -0.0053193714 0.02212111 -0.033706754 0.015832718 -0.055264182
진짜 -0.052571353 0.16739906 0.018940562 0.061905466 0.056146186 0.004484426 -0.036008995 -0.007989062 -0.10264651 0.04340896 -0.021936875 0.083283864 0.06390163 -0.0068383226 0.04055708 -0.12672414
했 -0.02008151 -0.019864079 -0.011945515 -0.05668876 -0.022932626 -0.0015469952 0.05228464 -0.14672409 0.012572434 0.021924071 -0.029705172 0.0012039075 0.03286415 0.026731087 -0.031771578 0.038232822
에서 -0.012449309 -0.0037347972 -0.024460316 0.009906412 -0.034965213 0.035327118 0.027902516 -0.029195929 0.007057598 0.043280587 -0.039920796 -0.0012316667 0.06297344 -0.046153195 0.019208685 -0.06594775
기 0.049707387 -0.16362958 -0.036471173 -0.06431324 -0.02052392 -0.0020721105 -0.028703762 -0.10251742 0.027179068 0.03714856 -0.03423039 -0.038967013 0.029609589 -0.0125292735 -0.018800002 0.04319699
네 0.0062347413 -0.15065458 0.021724079 -0.046751842 -0.005760859 -0.0011425894 -0.007772194 -0.06459883 0.0457557 -0.040699676 -0.034547538 0.07462916 -0.03647223 0.003299481 -0.081279084 -0.03138057
않 0.055993933 0.21262212 -0.0013154461 -0.05915702 -0.13268329 0.24355562 0.022450887 0.34480286 -0.039342552 0.05466085 0.019273235 -0.018532667 -0.02025259 0.012544024 -0.031801384 0.025110057
거 0.037178777 0.013156809 -0.05232878 -0.023587741 -0.0068240287 -0.06412714 -0.0036912814 0.035872284 0.04884705 0.032446615 0.017665736 -0.088740006 -0.0113867875 0.009494197 -0.045233026 0.06905322
았 -0.01480207 -0.021806147 -0.017237678 -0.011775508 -0.060093433 0.03837867 -0.02298346 -0.014472993 0.028169148 -0.026426872 0.0023161585 0.010297284 -0.0240389 -0.0104715815 0.0225801 -0.030181648
수 -0.044290487 -0.20059672 0.030588396 -0.011615634 0.021922264 0.023360975 -0.04756869 0.014102935 0.035849467 -0.07783923 -0.04619959 -0.013524068 -0.032802187 -0.098133996 -0.057633314 0.12839541
되 0.006120136 -0.071063854 0.03260457 0.0070537403 0.03757943 -0.08342505 -0.010941381 -0.05541981 -0.07695065 0.052740518 -0.0703438 0.011754396 0.017016869 -0.057028532 0.03948728 -0.045674637
면 0.051180996 -0.059579194 -0.029167995 -0.026934136 -0.0001446688 0.10865142 0.004995755 0.11749514 -0.011553812 0.013721387 0.016493844 -0.017466122 0.06831603 0.018154323 0.0097338185 0.07372543
ㅋㅋ -0.0104759885 0.028037608 0.036837988 -0.025462305 -0.012961009 -0.064598516 -0.015515404 -0.21037705 0.024386544 -0.061373528 0.036001846 0.003676519 0.0006890253 -0.062077444 0.029776294 0.05104754
말 0.025244487 0.057865623 -0.037511304 -0.040257167 0.0066202083 -0.0041807215 -0.01280072 0.07953696 0.022376982 -0.010346523 0.03138211 -0.005752526 0.0010237333 0.007288297 0.0062028607 -0.02129649
연기 -0.031022092 -0.019738402 0.010956761 -0.009982685 0.058226347 -0.12568395 -0.070928745 -0.19287552 -0.032778908 -0.015711194 -0.043342605 0.052400593 0.025273196 -0.039773017 0.07995231 -0.016629912
인 0.020669615 -0.032784328 0.027297953 -0.033408318 0.014960244 -0.05862281 0.05296162 -0.066682935 -0.0075027756 0.014066627 -0.037479784 -0.02074871 0.033268064 -0.025030807 0.05640077 -0.056385376
주 -0.025666177 0.10769307 -0.010283462 -0.01993066 0.07078367 -0.095605746 0.00318976 -0.12662537 0.0013296376 -0.0004494858 -0.049060505 -0.066037685 -0.028704818 -0.007242705 0.03605618 0.029599573
내 0.007839094 -0.005045209 -0.027923543 0.06700992 0.041156456 0.010591271 -0.03723601 -0.045595355 -0.055736408 0.051404286 0.008439661 0.06712229 0.037136447 0.0076543596 -0.028587589 -0.07106032
최고 -0.21886767 0.048034694 0.12974979 0.16013306 0.21663325 -0.11728952 -0.20079234 0.035039555 -0.29956442 -0.1319131 -0.203217 0.26659548 0.31544676 -0.28061578 0.37504652 0.07977988
~ -0.059311427 -0.03591456 -0.03174004 0.050973777 0.028884461 -0.058717083 -0.013346279 -0.08486313 -0.0009223604 0.016441192 -0.034145832 -0.032672286 -0.019419571 -0.05105869 0.07838796 -0.030656977
평점 0.004807627 0.04839535 0.028190697 0.033064257 -0.021134464 -0.030707143 0.006654027 -0.10985362 0.02098215 -0.040861804 0.05139669 -0.05339493 0.0045276787 -0.027223708 -0.023605851 0.14261729
이런 0.018959958 -0.011410662 0.02251234 0.050082386 -0.055606823 0.0024620646 -0.006127454 -0.000973046 0.012668233 0.04996011 -0.065045044 0.04513433 0.018012865 0.05594882 0.02303624 -0.11708188
던 -0.03464328 0.0145846065 0.0141544845 0.0052920617 -0.01356802 -0.007751614 0.035703007 0.10371778 -0.025503095 -0.02613267 -0.021951402 0.0015939219 -0.03206665 0.046828922 -0.027667012 -0.04166641
어요 -0.0457201 -0.20945543 0.0058189076 0.044645756 0.06645621 -0.1736261 0.032330077 -0.27850068 -7.0980605e-05 0.03841241 -0.10733577 0.051821318 0.031717993 -0.073234975 -0.025006276 0.102959
할 -0.015501109 -0.013670619 -0.030565042 -0.021771451 0.016304895 0.02317992 -0.036792383 0.03365025 -0.016344056 0.06904687 0.0156171005 0.024021583 0.011550647 -0.0036780103 0.05015897 0.0631202
왜 -0.013522432 -0.1874837 0.00051352114 -0.03580322 -0.020738859 0.022911431 0.020519963 -0.1472319 0.07858331 -0.08818779 0.032418057 -0.036797136 0.045375265 -0.05598321 -0.06684648 0.08345716
겠 0.04350097 -0.006770408 -0.06589119 -0.060883276 -0.047051676 0.06290914 0.050883494 0.048742432 0.021955384 0.08151142 0.0072852196 -0.08921086 -0.06973267 -0.0074717556 -0.07671055 -0.032995608
1 0.10860449 -0.0719908 -0.096447065 -0.11665537 -0.1389786 0.18431458 0.13568364 -0.027800314 0.14282833 -0.0010113396 0.12108035 -0.054764096 -0.050582442 0.062943675 -0.08976619 -0.081912465
스토리 0.047085945 -0.113493375 0.017555324 0.019326326 -0.049128406 0.030449433 0.043995265 -0.078782886 0.06903428 -0.018556567 0.045306575 -0.0028402829 0.016958416 0.09090144 -0.05054363 -0.027065206
해 0.016980572 -0.06358588 0.032849908 -0.018835742 0.03471233 -0.009079858 0.0470761 -0.11216413 0.053579245 -0.04097499 0.014089022 0.044231266 -0.03946986 -0.07239991 -0.010831064 0.0614756
습니다 -0.09384254 -0.20077638 0.052800465 0.041982293 0.069994494 -0.07224078 0.008622271 -0.20945261 -0.022995988 -0.00806625 -0.074160114 -0.020948503 0.0071726902 -0.05227372 0.0157233 -0.09498384
ㅋㅋㅋ -0.0142015545 0.07184121 0.028371047 -0.03553026 0.030265039 -0.012706567 0.036961928 -0.082693815 0.008012242 0.0018410734 0.07258016 -0.04675382 0.00596198 -0.034163773 0.019894466 -0.01598996
... 0.025228359 0.019996794 0.043016247 -0.011436578 -0.022656262 -0.0077543897 -0.031784244 -0.045388557 -0.0009963055 0.031243637 0.05761249 -0.026285019 -0.006471388 -0.022907251 -0.015176254 -0.049065035
드라마 -0.018896013 -0.22698212 0.035232868 0.0649529 0.04004935 -0.084216006 -0.02100069 -0.17943105 0.023303058 -0.036365207 -0.05352355 0.01688919 -0.028192936 -0.095036015 -0.049120925 0.11840611
생각 -0.077646166 -0.13444266 0.07464963 0.044259734 0.037363634 0.0020337326 -0.029552385 -0.13472083 -0.014928999 0.026119042 -0.01779337 0.09654455 0.06702019 -0.09803498 0.06755276 0.03946969
아니 0.11520218 0.12909152 -0.11467434 -0.034167584 -0.17399342 0.15955298 0.034146782 0.29689398 0.044462547 0.06988122 0.043104235 -0.036072012 -0.026356917 0.0906677 -0.077470995 -0.053657714
더 -0.008742415 -0.1827121 -0.008046601 -0.010768227 -0.015116242 0.061924312 0.005282605 -0.057381295 0.071958005 -0.01793638 0.00194015 -0.036371067 -0.04985974 0.029171648 -0.07055404 -0.011569097
그 -0.070114456 0.05190409 0.02989312 0.008642944 0.04437164 -0.033412322 -0.05586316 -0.0572198 -0.01783992 -0.027151207 -0.009407947 0.0917717 -0.00048716133 -0.01504683 0.0051048524 -0.017843222
싶 -0.015818588 -0.105374545 0.046553846 0.027992858 0.027205076 -0.10375022 0.020190392 -0.1691266 0.020931622 0.0044611474 -0.004439142 -0.02305486 -0.058741663 -0.012079285 -0.024233911 0.06754521
사람 0.02111805 0.08460418 0.018334871 -0.06918059 -0.005535763 0.0048468392 0.0075485716 0.072367586 -0.021029975 -0.016692957 0.0677471 0.013793339 0.05668731 0.0003086427 0.04614631 0.11231607
듯 -0.011194232 -0.06588888 -0.0040692477 0.04161611 -0.09145945 0.06831753 0.020908087 0.15798204 0.0055917357 0.031035243 -0.009483127 0.031391047 -0.06885564 0.057643514 -0.011400175 0.033201195
때 -0.011173061 -0.052305747 -0.018244391 0.050583154 0.015073753 0.032670423 -0.03407534 -0.06033189 -0.021539273 -0.0139797805 0.008837355 0.04354587 0.042010993 -0.0041091735 0.0072861835 0.0045099873
감동 -0.13983276 0.2992542 0.056860894 0.08743874 0.13753128 -0.14786868 -0.038281504 0.031696938 -0.16030604 -0.07301742 -0.11252433 0.09594378 0.17824738 -0.10841381 0.17479281 -0.012757345
함 0.0066645565 -0.038876723 -0.020660259 -0.003982632 0.0021807645 -0.056710344 -0.026569128 0.0005275303 0.0498152 0.019681279 -0.015303613 0.08914864 -0.022627281 0.068798766 0.00017421355 -0.028927136
배우 0.0055427616 0.13945253 0.02651022 -0.004159122 -0.013362263 -0.005779205 -0.011623854 0.09429849 0.030726997 0.018252758 0.08809406 -0.06868499 -0.04225801 0.083265565 0.007279993 -0.10297633
본 -0.07560284 -0.017044974 0.033015937 -0.004758736 0.02049985 -0.052044757 -0.046206344 -0.051569942 0.020984108 -0.025038917 -0.040767256 0.043119714 0.040311575 0.007325472 -0.02228544 -0.0057277842
까지 -0.01099935 0.108648874 0.040165268 0.0052367947 0.008583114 -0.0902418 0.01557866 -0.062848315 -0.03826493 0.026081676 -4.875785e-05 -0.047374588 -0.04437204 -0.011152279 -0.005746831 -0.0012801631
뭐 0.10971382 0.022718411 -0.06197821 -0.09850263 -6.40669e-05 0.044390615 0.10810718 -0.16198112 0.09531368 0.033958778 0.03177798 -0.09202808 -0.010245858 0.043511588 -0.07016037 -0.0035332548
알 0.05684865 0.005649852 -0.043864314 -0.03396141 -0.02335955 0.010202524 0.007879702 0.02697059 -0.009268692 -0.0030942617 0.015745325 0.061581902 0.029793352 0.007417274 -0.0572419 -0.03508158
만들 0.010170852 0.041124735 -0.063140966 -0.012657624 -0.027584638 -0.07089891 0.0024528801 -0.07377287 -0.087060645 0.026918609 -0.08701613 -0.059773523 -0.026599482 0.014338654 0.019011868 -0.11616395
내용 -0.019454915 -0.005073569 -0.07018837 0.04648006 -0.07350408 0.025792776 0.044939175 0.06525538 0.027158853 0.09063403 -0.0236384 -0.053998183 -0.02436498 0.11423844 -0.038125835 -0.1435085
볼 -0.06295798 -0.10699047 0.023698924 0.04574557 0.007510632 -0.044612885 -0.040501133 0.12870334 -0.048375323 -0.077360414 -0.03974248 0.004931477 0.005281258 -0.096533775 0.051492482 0.17014971
감독 0.043819387 -0.009092645 -0.05291954 -0.062308256 -0.013819433 -0.105512485 0.07807215 -0.1789881 0.11288192 0.033297516 0.03903855 -0.05313008 -0.03645839 0.06260157 -0.033340894 -0.10109754
보다 -0.021987293 0.18434939 4.7877897e-05 -0.02120816 -0.00292247 0.019126661 0.026456453 0.022952797 -0.042592146 -0.05723883 -0.011467957 0.014540244 -0.03153697 0.059067108 0.023846196 -0.06048234
라 -0.01975722 0.030372612 0.011914155 -0.008866534 0.014291917 0.047707926 0.008452666 0.013481769 0.012647893 -0.0053251674 0.0052786367 0.07627409 0.09250727 0.030383537 0.0067771804 -0.035294883
그냥 0.062648654 0.15904278 -0.05500821 -0.00017165346 -0.059157915 -0.0019087796 -0.00081562175 -0.005165145 0.02299671 0.1203976 0.018546186 -0.075208195 -0.0668662 0.034147955 0.04862455 -0.16981424
재미 -0.06605765 0.34502536 -0.0341962 0.04897393 0.034761827 -0.06266603 -0.029672015 -0.051335026 -0.114196904 0.038198907 -0.014577038 0.0045368997 0.044316493 -0.025360141 0.14573674 -0.2051511
시간 0.037560206 -0.22528148 -0.06683601 -0.04661963 -0.05349934 0.09048317 0.024955835 -0.06867609 0.057689756 0.08121958 -0.03688291 -0.0007580016 -0.051516958 0.01918125 -0.14287026 -0.012743953
지루 0.25268164 -0.20972374 -0.1572597 -0.17686412 -0.16327587 0.37461358 0.2119087 -0.08144153 0.20861807 0.05877136 0.16283084 -0.13703765 -0.086250305 0.16288461 -0.25312248 -0.15745436
중 -0.038355004 -0.030574493 0.04790189 0.07948342 0.061718583 -0.1020577 0.007604161 0.027157804 -0.042366646 -0.009405535 -0.059776396 0.0075197644 0.01599121 -0.0514062 0.029122008 -0.0062155137
재미있 -0.10489582 0.06769906 0.124929205 0.16478793 0.12413801 -0.07457235 -0.21578585 0.15031973 -0.2132538 -0.045558613 -0.10781748 0.13526441 0.097068526 -0.11784754 0.2016537 0.066165
년 -0.03896311 -0.08196094 0.011463159 0.03839634 0.034835063 -0.08652412 -0.01068677 -0.04946899 0.0053391634 -0.05476579 -0.055420943 0.024792593 0.028314542 -0.006996944 -0.054645933 0.049931556
10 -0.13270327 0.27249125 0.20014124 0.24219425 0.02257396 -0.100960925 -0.17160082 0.44533142 -0.2612465 -0.13675651 -0.13581045 0.12947811 0.038724054 -0.1537498 0.06258823 0.263295
였 -0.039345466 0.03454638 0.08375975 0.027704762 0.059142813 -0.04198703 -0.033195082 -0.16350769 0.009833211 0.013017542 0.012500193 0.02420073 0.059303742 -0.000726843 0.026816698 0.052059222
잼 -0.11161015 -0.1770828 0.073775455 0.12806788 0.0762217 -0.1039938 -0.045504887 -0.15940492 -0.121653795 -0.018762397 -0.096232645 0.09841101 0.102605194 -0.11638262 0.12401948 -0.0712712
사랑 -0.09576688 0.11895754 0.07802101 0.0380583 0.1567147 -0.10103967 -0.096849926 0.020297108 -0.0131255165 -0.12555608 -0.037000127 0.15189849 0.08481549 -0.11267707 0.07793749 0.13762379
못 0.15120514 -0.019585816 -0.0724157 -0.065373436 -0.16990787 0.13308129 0.08825001 0.1249565 0.078982 0.050980747 0.10454409 -0.07263304 -0.01813445 0.113050535 -0.102265134 0.025539782
냐 0.0901545 0.06135431 -0.05102053 -0.09052555 -0.021784274 0.12137123 0.09197997 -0.080043204 0.016211329 0.044661004 0.055731617 -0.022720773 -0.013173037 0.05682115 -0.004999688 -0.09665108
재미없 0.37802657 -0.31759924 -0.2668907 -0.32481703 -0.35063958 0.39354727 0.21892178 -0.17440274 0.37100163 0.1716928 0.25732374 -0.21991219 -0.25958142 0.26940942 -0.55907154 -0.06372611
쓰레기 0.30819392 -0.29333785 -0.21351127 -0.24350646 -0.3127419 0.3790719 0.21520995 -0.043245845 0.2754944 0.1920343 0.2552151 -0.18561836 -0.26257518 0.20720084 -0.38396627 -0.280605
서 0.0023781867 0.13969329 0.033981714 -0.036268968 0.024674218 -0.013184509 0.052938346 -0.034924302 0.045152586 -0.0061754775 0.043647528 -0.078309596 0.015657833 -0.027598944 -0.04666456 0.11161615
2 0.020623665 -0.07447036 -0.009067674 0.019079937 -0.07527927 0.21006966 0.06503941 0.005559997 -0.0048207636 0.042713962 0.01658004 0.03094244 0.034304503 0.081492566 -0.024367314 -0.07847616
라고 0.027762515 0.06884754 -0.053682882 -0.033854276 -0.04843684 0.080009274 0.03844363 0.029039092 0.0561248 0.04926521 0.034938548 -0.060948983 -0.051749174 0.053137477 -0.009808256 -0.05475025
야 0.039926976 -0.09749528 -0.03911578 -0.026374549 0.003673876 0.03916166 -0.05608696 -0.05809081 -0.014593828 -0.012768424 -0.0025862092 0.087371126 -0.024833152 -0.025966324 -0.055427965 0.014892046
니 0.013786584 -0.0016176477 -0.037568018 -0.07415963 0.015981257 0.001198553 -0.01436745 -0.056576476 0.030410143 -0.042021867 0.043727126 -0.00032260508 0.009325079 -0.051942106 -0.0065639005 -0.016148228
면서 -0.04707446 0.07021952 0.055829305 -0.011474833 -0.024669858 -0.016343037 -0.030162401 0.0152791655 -0.063016094 0.026902858 -0.010402821 0.01468595 -0.01381624 0.0064238766 0.0725376 0.046537064
번 0.012265418 0.013525541 -0.00158725 0.020408336 -0.01845919 0.007535734 -0.019211696 0.09436335 -0.003578922 -0.045248732 -0.05038847 0.01719142 0.043923236 -0.044771615 0.055967264 0.050499152
다시 -0.06326791 -0.02838168 0.11130581 0.12231963 0.020275613 0.12872086 -0.05411219 0.07534768 -0.13661589 -0.053193454 -0.013305527 0.06813908 0.015266198 -0.08172939 0.14315654 -0.07388488
나오 -0.022358464 -0.020453636 -0.030373191 0.023241807 -0.02340869 -0.0694258 0.044208907 -0.09589966 -0.030278808 0.07606222 0.021772303 0.042726908 -0.014448784 -0.011311722 0.050986018 0.0013710076
작품 -0.032547247 -0.010552455 0.061906587 0.023399055 0.07898292 -0.028074838 -0.079772435 -0.11832791 -0.01787222 -0.010787184 -0.0050367764 0.07889752 0.03457931 -0.011721656 0.00911348 -0.008448704
이거 -0.008421008 -0.054920327 0.026886113 0.004274163 0.04483235 -0.04833179 -0.021224095 -0.118019775 0.01275619 -0.006828501 0.0129274735 -0.07641617 0.011800315 -0.0068983496 -0.0012875318 0.067361124
하나 -0.02048051 -0.04310232 -0.010676506 0.0034392907 -0.07320995 0.030794356 0.021839678 -0.020535786 0.08586164 0.055795703 0.036206525 0.030384459 -0.03696291 0.034529373 -0.03525039 -0.080183536
줄 0.0766327 0.03391941 -0.057254285 -0.0044157812 -0.07212426 0.02267804 0.053940635 0.105204985 0.008831165 0.0071308776 0.0002826145 -0.041255273 -0.06120355 0.063333884 -0.07105054 0.0062041488
해서 -0.015628012 0.13471228 -0.056495383 -0.022219714 -0.038377587 -0.05604092 0.0131372325 -0.059687156 -0.0070866495 -0.00025020225 -0.02615995 -0.04355246 -0.06069059 0.06580466 0.05261538 -0.0055148415
개 -0.02053081 -0.024750525 0.008622315 -0.052203305 -0.010173921 -0.004999125 0.015254804 -0.10490627 0.07861147 0.051541366 0.022151195 -0.021905668 -0.00044430752 -0.006934164 0.01478072 -0.035902914
남 0.0072343666 -0.13347562 -0.017078064 -0.025644891 0.0281339 -0.044254668 0.03183032 -0.09314507 0.00058827916 -0.023261756 -0.0597969 0.016164793 -0.021020964 -0.013931503 -0.030276747 -0.072435245
정도 0.02017626 -0.22739871 0.044086702 0.033308566 -0.03494742 0.08734121 -0.03788898 0.055640034 0.013902552 -0.004618083 -0.073989764 0.07266893 -0.034485273 0.010556266 -0.06792193 -0.06760859
마지막 -0.00016008224 -0.22150713 0.09871437 0.08426168 0.06698629 -0.023478134 -0.06188031 -0.059819423 0.0065303864 -0.081383675 -0.04926595 0.020993616 0.0032243475 -0.061893657 0.010627786 0.08424376
끝 0.035668615 -0.22994152 -0.004661725 -0.0055481144 -0.1097549 -0.0027165865 0.008412908 -0.071420446 0.05749016 0.06631312 0.02883556 -0.008389193 -0.062890634 0.025878584 -0.06824922 0.0117798
이건 0.015225049 0.30703622 -0.090143695 -0.017631551 -0.09551479 0.051479198 0.0036418943 0.15569098 -0.14860958 0.1637252 0.0013394956 -0.03864361 -0.0050140494 0.11294941 0.1426886 -0.36447206
액션 -0.00805647 -0.0028706535 0.008499528 0.03877485 -0.0031784696 0.028602557 -0.018312925 0.11666049 -0.0306129 -0.026741007 -0.07185006 0.055125307 0.05770688 0.011654514 -0.00456218 0.000746363
임 -0.0025436399 -0.013833161 0.010214442 -0.017718833 -0.026725061 -0.04453336 -0.029558636 -0.15079114 0.054206908 0.025594534 -0.083142996 -0.026712589 0.0005957567 -0.06082933 -0.010252702 0.08515559
ㅋ 0.031336367 0.04344008 0.016294086 -9.297501e-05 -0.013975353 -0.07273065 -0.021310296 -0.14700459 0.03250852 -0.056325536 -0.03417543 -0.05839101 0.013819216 -0.049605686 0.028028935 -0.010155308
3 0.024633026 -0.0494634 0.0005490467 -0.058431186 -0.061494056 0.05900008 0.02807439 -0.05688838 0.041593798 0.01577933 0.062872596 0.030546693 -0.07435234 0.07110894 -0.0697349 -0.08643473
기대 0.024749586 0.31277052 0.026369868 0.048515607 -0.07083806 -0.11038658 0.027695566 0.14224786 -0.16347353 0.11483745 -0.026553804 0.024880027 0.016156716 0.06740727 0.110268 -0.13498257
입니다 -0.022980819 -0.14335491 0.01233004 0.023405876 0.03767679 -0.17060424 0.004537345 -0.19072936 -0.06624444 0.06285467 -0.0489385 -0.0080094505 0.0009712043 -0.06363491 0.05777164 0.020224866
건 0.02043403 -0.030418124 -0.03454724 -0.04538149 -0.019689547 0.09257716 -0.027616058 0.052110806 0.036612857 0.032650273 0.009436477 -0.075608276 -0.06919467 0.055672344 -0.13134395 0.047191616
라는 0.06197476 -0.20738049 0.016819216 -0.0026103125 -0.0015977685 0.016352238 0.04655355 -0.035501506 0.074479036 0.051947165 -0.044347644 0.04743925 -0.008328214 0.017038576 -0.04145689 -0.044054806
분 0.11671719 0.13909657 -0.09213037 -0.07943943 -0.07053726 0.07749015 0.07882817 0.090527155 -0.0026731074 0.04512 0.12078644 -0.14324243 -0.011483027 0.064087965 -0.012700142 0.10029726
완전 -0.038758636 0.28409952 -0.009954234 0.06109148 0.06040578 -0.042171907 -0.03208214 -0.08673225 -0.10608429 0.073087834 -0.063302234 0.04580399 0.007417462 0.026953418 0.15184495 -0.26912263
다는 0.07950328 0.088532835 -0.062087446 0.0012851318 -0.009504004 0.043952875 0.029834216 0.09937853 0.055187467 -0.0356061 0.032047193 -0.02904769 -0.011988923 -0.03416796 -0.032130267 0.07239027
참 0.064162776 -0.08959443 -0.004369699 -0.0253357 -0.0019033962 -0.012832769 -0.025518818 -0.023555167 -0.05659607 0.079774946 -0.010915061 -0.02834158 -0.0066569727 -0.0003207408 -0.0028478026 -0.03937177
많 -0.061778054 -0.13511191 0.05567248 -0.023537962 0.03491693 0.036358364 -0.06488292 -0.041230127 0.012372964 -0.0143051725 -0.05663539 0.11234353 0.09331858 -0.04047149 -0.0019843087 -0.03792231
처음 0.008530992 -0.25246665 0.015012907 0.012276557 -0.004432441 0.03448354 0.024887286 -0.11214283 0.038647912 -0.06088971 0.020539297 -0.010576448 -0.07674228 -0.03501777 -0.10833074 -0.016594775
장면 0.024090696 0.027386954 0.011844309 -0.006307679 -0.00013269216 -0.028751615 0.017048648 0.059745852 -0.017120088 0.052522372 -0.021502769 -0.02389797 -0.009105483 0.03984525 -0.04331231 -0.107943796
대 0.07690668 0.17223775 -0.044754513 -0.04093275 -0.040420294 -0.03694997 -0.021187095 0.10111565 0.032177698 -0.00019114994 0.117654204 -0.06917639 0.032535747 0.020541593 -0.0009848156 0.07052248
아깝 0.15215434 -0.28727168 -0.1587285 -0.08344719 -0.15832233 0.05648928 0.13598031 -0.12646458 0.23702392 0.06614334 0.012015226 -0.045395892 -0.1957065 0.09400249 -0.34644777 0.01861057
다가 0.09539967 0.19913071 -0.065450825 0.04026225 -0.050401714 0.025156697 0.112965405 0.040885456 -0.07747049 0.11288338 0.01491242 0.00035631954 -0.07259389 0.11602052 0.041096754 -0.2318509
으면 0.042177893 -0.02149372 0.019058704 -0.035712805 -0.01617591 0.013645617 0.084301226 -0.079086214 0.01634139 -0.0066073244 0.07482214 0.05620451 0.028162684 0.032348163 -0.04651405 0.050621524
지금 -0.020290475 -0.018722964 0.0021531305 0.08072526 0.01225351 -0.009730394 -0.110140696 0.15142776 -0.12875336 0.031072574 -0.05294924 0.079095 0.0210643 -0.11971977 0.020068852 0.123906605
모르 -0.02414971 0.23728843 -0.012788947 0.007061378 0.017836902 0.08519067 -0.05610855 0.007507209 -0.036631733 -0.011374067 0.026622575 0.03594396 0.066285916 0.020835977 0.07550403 -0.13551295
이렇게 0.025467105 0.19419537 0.0087270625 0.10363208 -0.009264782 -0.08662314 -0.010038616 0.09130238 -0.14251144 0.086608335 -0.032357782 0.034114808 0.041259736 0.004199218 0.077439 -0.12697071
' -0.04919218 0.104218744 -0.045952175 0.02930721 0.064028546 0.019682873 -0.037985403 -0.008038493 -0.056457683 0.046880774 0.03201088 0.034235116 -0.009185789 0.020019105 0.013137093 -0.104351655
편 0.03800204 -0.06712099 0.056946658 0.032810297 -0.013830883 -0.048694342 -0.08052354 0.05055702 -0.009778848 0.00041495165 -0.009283327 -0.016606636 0.024557859 -0.07412493 0.013234069 0.18787569
일 -0.0073472383 0.04910691 -0.011355785 -0.04597951 0.015552976 0.007591738 -0.024131289 -0.035172775 -0.01856785 -0.008155651 -0.030517526 -0.027173094 0.034007113 0.0744486 -0.007582077 -0.067628324
돈 0.20266007 -0.25737077 -0.15012848 -0.15106285 -0.16937485 0.06692211 0.10123649 -0.13785157 0.25953132 0.0927224 0.15811746 -0.10466495 -0.18733537 0.08867652 -0.24377298 -0.009943518
이게 0.05694243 0.01138255 -0.062093306 -0.03748909 -0.033343706 -0.017934144 0.058713626 0.038280614 -0.0019150458 0.04662872 0.049195804 0.014458432 0.036953427 -0.004783977 -0.053621728 0.12263419
성 0.0008636875 -0.090618916 0.025424553 1.3925455e-05 -0.08138055 -0.01410812 0.027090771 0.012787952 -0.023406086 0.021926511 0.027877774 0.018062579 -0.057097793 0.0029212965 -0.021251842 -0.020652696
느낌 -0.020603597 -0.06957101 0.011761087 0.010208756 -0.06739731 -0.040413763 0.052431572 -0.044015862 0.03978567 0.02481192 -0.016102806 0.0075853313 -0.037548214 0.046012588 -0.05936496 -0.13116683
시 0.03770521 -0.08607934 0.00952409 -0.02896515 -0.053066555 0.029934812 -0.07759193 0.01117927 0.05502434 -0.033984438 -0.03666107 -0.00811746 -0.046234787 -0.048326243 -0.00033526807 0.13981532
이야기 -0.05541693 -0.104893446 -0.012309738 0.052778553 0.07033728 -0.05065449 -0.06580583 -0.085822165 0.023246516 -0.019077867 -0.08555817 -0.012610663 0.019619495 0.018950729 -0.0676205 0.021570431
최악 0.44915926 -0.41349873 -0.45484504 -0.49467856 -0.42493096 0.22822976 0.45774695 -0.27506083 0.41430753 0.47889632 0.33065495 -0.3580229 -0.41083643 0.3080847 -0.24591023 -0.25802106
된 0.02463899 0.03790748 0.04531241 0.041057453 0.028437346 -0.073524766 -0.013490996 -0.058877975 0.02923088 0.033720434 -0.045589622 -0.025937743 0.027139451 -0.01295005 0.032207724 0.036501873
봐도 -0.035176843 -0.5457583 0.011928792 0.157488 0.11228122 -0.112066165 -0.015269854 -0.1545635 -0.055591833 -0.027446106 -0.12920792 0.094639845 0.045821153 -0.07843697 0.006318399 0.041911963
님 -0.022107933 0.046689138 0.025978865 0.011591897 0.1003189 -0.08644783 -0.0068492694 -0.040183116 -0.00715932 -0.040112205 0.016164104 0.014320704 0.0013041482 -0.13007843 0.07474242 0.19845465
어서 0.011464201 -0.15635385 -0.005757747 0.035076402 -0.04935659 0.05935759 -0.039727207 -0.1180233 0.050832387 -0.002732058 -0.053818274 0.03469034 -0.045634024 -0.045252252 -0.0025808462 -0.07173194
애 0.07558649 -0.03903436 -0.035822444 -0.05417853 0.0070510427 0.028220426 0.047147386 -0.06520137 0.061613794 -0.034832366 0.06987358 -0.0146929305 -0.054788966 0.07307963 -0.0033858833 0.08609076
전 0.03176189 0.07918499 0.0057007144 -0.02184032 0.01926526 0.030339027 -0.000845211 -0.08463454 -0.049972907 0.010574024 0.06031964 -0.009041454 -0.005973774 -0.036369998 0.00440085 -0.14690182
넘 -0.053809054 0.11047311 0.013803959 0.065164745 0.08490339 -0.15573676 0.0015608559 -0.070994526 -0.08139278 0.047932215 0.012765014 -0.023444742 0.0022279357 -0.0038667403 0.09506245 -0.17881727
ㅠㅠ -0.06687955 -0.011051099 0.045627527 0.0112376055 0.09926378 -0.12491905 -0.08282162 -0.16561066 0.0053600417 -0.06458022 -0.022064382 0.047252554 -0.024085237 -0.07242076 0.002043848 0.022297056
인데 0.03148415 -0.11019155 0.03105766 0.037058514 -0.039266765 0.08120772 -0.008013789 0.065545164 0.0032885014 0.047942303 0.023233 -0.003287598 -0.010848881 0.03185388 -0.03244552 -0.04368686
다고 0.15533644 0.26371422 -0.060506653 -0.03474988 -0.03635151 0.02135138 0.037325595 0.3970662 -0.048945744 0.1087045 0.10283871 -0.11869604 -0.028713841 0.040983226 -0.10155987 0.0108134635
이해 0.056710888 0.21483761 -0.04144242 -0.07492615 -0.005273583 -0.0775753 0.06626807 0.07001016 0.010532698 -0.010297819 0.08894397 -0.010057627 0.032211114 -0.03630992 -0.03219021 0.10211648
별로 0.24275991 -0.3688572 -0.12712193 -0.22726206 -0.17213361 0.30465028 0.2032698 -0.24823377 0.2561518 0.09661718 0.22950275 -0.09317437 -0.18592513 0.14417943 -0.2803427 -0.2362508
그리고 -0.03916611 0.05328735 0.021016348 0.01875256 0.034876477 -0.18442562 -0.004727841 0.070723325 -0.10348489 0.044716466 -0.022274423 0.0658714 0.056558605 -0.054083373 0.0046748 0.0065094144
명작 -0.2148151 0.07252889 0.20626116 0.17419694 0.19022298 -0.21557383 -0.17451099 0.044552043 -0.12606645 -0.217603 -0.16013895 0.21697922 0.18192853 -0.24595372 0.13272728 0.24593091
여자 0.05810304 -0.06480812 -0.029192865 -0.03655178 -0.13445657 -0.0035210608 0.05857709 0.10395184 0.09621477 0.022734886 0.01790262 -0.07543963 -0.06938459 0.111335576 -0.06748802 0.03776651
^^ -0.048900675 0.043005284 0.010635165 0.048262108 0.06273709 -0.0870867 -0.08988494 -0.00079975196 -0.00882665 -0.05063111 -0.018675964 0.008426397 0.05492287 -0.017699359 0.06443806 0.013526972
역시 -0.06659268 -0.10052059 -0.0022457305 0.039002478 0.0787712 -0.098390974 -0.08145241 -0.049216524 -0.0028461476 0.020064835 -0.06739153 -0.004724265 0.013098404 -0.092517264 0.08625479 0.15949558
난 -0.06188523 0.22777058 0.039929215 0.040673804 0.06562021 0.09294798 -0.11168767 0.013483262 -0.14154217 -0.04104227 0.0015333734 0.02676031 0.057396267 -0.02265203 0.13322096 -0.13880716
이상 -0.028559627 -0.06651994 -0.0016469115 0.068791725 -0.03394377 -0.0015805967 0.004357123 -0.03732936 0.010080224 -0.010633504 -0.021428619 0.038957145 -0.033110935 -0.07222235 -0.025335733 -0.0604435
또 -0.048106775 -0.2787806 0.040378466 0.058241114 0.044709433 -0.12079796 -0.012844833 -0.001816607 -0.009255501 -0.06641086 -0.13490729 0.04700927 0.033224095 -0.02038795 -0.049548406 0.07737203
걸 0.055963818 0.020968312 0.009121135 -0.002504434 -0.01910039 0.07588859 -0.027342165 0.09585567 -0.004052768 0.0448594 -0.02097026 -0.032349445 -0.049410045 0.08342483 -0.06318993 0.021217236
한국 0.010753702 -0.044483427 0.05458134 -0.030533463 -0.023785742 0.008066545 -0.021503 0.04108771 0.0037087991 -0.020895356 0.052422184 0.0010514274 -0.0055083763 -0.03989668 -0.040254407 0.16962403
는지 0.06182983 0.005194681 -0.07835865 -0.09792811 -0.038723916 0.02717459 0.0799424 -0.11103632 0.050541278 0.1030099 0.05343261 -0.016225062 -0.01344 0.061099827 -0.02956826 0.0010374892
많이 0.024377584 -0.037003472 0.016725156 -0.026398264 -0.043097567 0.008190449 -0.024069937 0.082105175 0.0043637743 0.029783156 -0.025838392 -0.0006312502 -0.03993851 0.044490356 -0.030219985 0.013480745
에게 0.0094059175 -0.025025612 -0.010131721 0.02868376 0.05263234 -0.06631541 -0.05624263 -0.22645192 0.0036466243 -0.043454386 -0.056397833 0.044137858 -0.003406478 -0.061752148 0.06473074 0.0113276895
부터 0.008121854 -0.0265662 -0.007741729 -0.025030531 0.014707241 0.008038716 0.044698443 -0.10075664 -0.09486399 0.0055182683 -0.054142833 -0.005265961 0.004164393 0.05119024 0.0075192233 -0.14325462
만든 0.0075745843 -0.056405276 0.013968023 0.008314754 0.06690715 -0.0002340741 -0.04209386 -0.05411285 -0.03878081 0.0388976 0.024210801 -0.009001102 -0.048363864 0.028069232 0.019169133 0.028629651
주인공 0.012853414 -0.108523615 -0.04812956 -0.013414581 -0.045237605 0.0043581454 -0.039393038 -0.105037734 0.049865756 0.039197963 0.07835883 0.018566806 -0.022987891 0.008540331 0.012098377 -0.093369566
받 0.018729571 -0.13092236 0.036065124 -0.006255935 0.023818774 -0.07516157 0.0051245303 -0.0638257 -0.02443001 0.010617761 -0.039171737 -0.032013305 -0.066155866 -0.063790135 -0.080949485 -0.0016034626
합니다 -0.034958955 -0.22548278 0.05053074 0.072514944 0.0019808817 -0.0629723 -0.035590693 -0.018383708 -0.05395083 0.04785569 -0.031991594 0.06481518 0.0218289 -0.054909214 -0.026330093 0.050594606
우리 -0.042301957 0.021653503 0.04872253 0.06330107 0.08908759 -0.023162605 -0.08620038 -0.03147164 -0.01027772 -0.04273916 -0.08612597 0.04223573 0.047606207 -0.08517469 0.1056836 -0.038445186
두 -0.04308348 0.014232806 0.019652491 -0.03131065 0.041802097 -0.044584986 -0.013638556 -0.06007605 0.021833973 0.013574438 -0.05885959 -0.05792842 0.019018639 -0.05565932 -0.027015524 -0.010760595
살 -0.014183778 0.094081506 0.06660429 0.059695914 0.034416564 -0.06409723 0.0050659287 0.11681841 0.020452537 0.008994299 0.021414926 -0.020791158 0.01812776 0.009317901 -0.053137135 0.18826409
!! 0.0036241414 0.00086487934 -0.035697047 0.05215631 0.026087584 -0.03658598 0.086935885 0.10981856 -0.003126955 0.081372745 0.030543527 -0.10019462 -0.10066041 -0.0037258922 -0.02186746 0.06353776
길 -0.021310082 -0.0049772803 0.024039214 0.012869561 -0.0033247524 -0.012133429 -0.0051819272 -0.12295176 0.058936674 -0.02466435 0.030743398 -0.008576582 -0.00057537586 -0.03248519 -0.037240274 0.034012474
엔 0.0863409 0.071089685 0.02425924 -0.04000696 -0.026774064 0.1677282 0.022231162 0.08537655 0.067918494 0.0042520226 0.002935786 -0.042047605 -0.030744633 0.063527286 -0.07751378 0.1590132
괜찮 -0.066278294 0.018194662 0.14465226 0.0872017 0.116408564 -0.13772382 -0.16399951 -0.021735156 -0.108371615 -0.082068585 -0.069711484 0.041655973 0.116331056 -0.14809972 0.08895869 0.19299652
기억 -0.05124463 0.12001461 0.05290109 0.035483178 0.08232232 -0.15502529 -0.029964624 -0.0409538 -0.105737485 -0.028708322 -0.07366589 0.10166602 0.06786034 -0.014424556 0.096915215 -0.017459108
연출 0.03174399 -0.06625053 -0.020902088 -0.009987947 -0.008555355 -0.051883787 0.036837235 -0.15143849 -0.012672595 0.06446329 0.044335958 0.010049037 -0.068321265 0.019700175 -0.011151925 -0.17110139
한다 0.0009119881 0.0027601973 0.03550014 0.04272344 0.015630668 0.03655739 -0.015816178 -0.0011210493 -0.032535914 -0.07838362 0.00512987 0.05350404 0.011192443 -0.06337056 -0.03330561 0.031838402
때문 -0.006403321 0.22616278 0.026033815 -0.064281195 0.033063892 -0.11441501 0.026944863 -0.08443978 -0.0039383816 -0.023416508 0.049527127 -0.08251223 -0.052870933 0.03792604 0.004891318 0.037868917
이나 0.037617467 -0.10549271 -0.046054065 -0.07551239 -0.057828188 -0.005344698 0.016421916 -0.14663634 0.0949939 0.067369625 0.10973916 -0.039761998 -0.013421746 -0.028328622 -0.035755612 -0.10869828
ㅎㅎ -0.07617294 -0.0038076292 0.06157296 0.0045014173 0.10154597 -0.118694305 -0.043914594 -0.10182117 -0.037058715 -0.10491074 -0.04390291 0.071402356 0.09994128 -0.10914629 0.12103258 0.06407286
요 -0.08399653 -0.116411485 0.060258616 0.02730105 0.09387612 -0.14535902 -0.00019127812 -0.16536213 0.011319601 0.004060217 0.006059438 0.08728304 0.082715325 -0.0407712 -0.0018281275 0.0019668806
저 -0.016156496 -0.026113465 0.015788458 0.03872486 0.0010482455 0.18818513 -0.0416664 0.1155091 -0.063255236 0.050832294 -0.015779117 0.059670992 0.024098324 -0.022655021 0.06514565 -0.12468157
재 -0.08901347 -0.07722545 0.06620692 0.09336104 0.07133027 -0.05283571 -0.050931387 -0.17354903 -0.18224211 0.0002700483 -0.070560835 0.016714206 0.06787561 -0.14537114 0.07628242 0.011127992
꼭 -0.104532026 -0.057137057 0.07895716 0.17332272 0.06783632 -0.06432381 -0.18721081 0.11172793 -0.022327363 -0.11260632 -0.11819437 0.1334797 0.013433911 -0.10854403 0.13203569 0.2455045
랑 -0.026182104 0.14521109 0.009075179 0.026444094 0.025686461 -0.05730513 0.0072044497 0.018658193 0.0055165687 0.08176983 -0.0018666505 -0.042649526 -0.041925468 0.086414 -0.039715048 0.013432537
며 -0.06856136 0.007381972 0.07158567 -0.034699965 0.0088793095 -0.08457904 -0.056212425 -0.006292236 0.014891034 -0.019506823 0.006807889 0.032320492 -0.05123837 -0.081036165 0.045599766 0.027325416
현실 -0.064960025 0.049920246 0.09094524 0.05957128 0.091228426 0.06351007 -0.08533245 0.00975751 -0.012134468 -0.12311616 -0.060006894 0.0347892 0.012931817 -0.059970036 0.071831994 -0.0539209
긴 0.08859681 0.20963347 -0.08583799 0.019899212 -0.06059432 0.18917738 0.07393781 0.20687513 -0.09363676 0.016753973 0.061036345 0.025195891 -0.03170329 0.035192143 -0.008941677 -0.043623935
ㅡㅡ 0.05461425 -0.20472628 -0.12052926 -0.101616606 -0.12997095 0.06897928 0.07456473 -0.10575224 0.20261589 -0.01156542 0.06991403 0.018281102 -0.12548062 0.120496795 -0.16132624 -0.011961936
무슨 0.14672422 0.019204931 -0.15948953 -0.112808116 -0.17693631 -0.0034338182 0.11838325 -0.08609753 0.11555046 0.13303289 0.10254828 -0.12695861 -0.15146726 0.13041759 -0.12661396 -0.015166265
내내 -0.02459665 -0.17080197 0.02265906 0.09938687 -0.024303684 -0.054709777 0.031244503 -0.07477493 -0.037418373 0.05392116 -0.07356237 -0.02333608 0.01388977 -0.086157344 -0.022492044 -0.103176534
결말 -0.0025196446 -0.17858638 0.012665192 0.023307128 -0.010059083 -0.019754484 -0.034610834 -0.14745596 0.100790255 -0.028738659 0.011887957 -0.040260043 0.030162575 -0.083162464 -0.07042419 0.112758584
죽 -0.020195985 -0.09170806 -0.04361307 -0.025275622 -0.0028279193 -0.04426879 0.0041293735 -0.046248406 0.086292654 -0.011747921 -0.04161928 -0.021957843 -0.0034889919 -0.038990967 -0.012008728 0.031341705
남자 -0.067847334 -0.13574669 -0.012929811 -0.03255432 0.045569327 -0.039638307 -0.04820794 -0.060481302 0.013895114 -0.08947805 0.06391526 0.013628137 0.013719367 -0.016475452 -0.009623427 0.122457996
세요 0.01248458 0.068236776 -0.04129471 -0.027771045 -0.027219675 0.030215386 0.012661637 0.098888375 0.05486021 -0.0720811 0.040868297 0.036964074 0.036155883 0.045565773 -0.026566606 -0.018200293
전개 0.07922628 0.055299744 -0.08477367 -0.05272389 -0.046782155 -0.00783495 0.03622784 -0.0012495137 0.040774185 0.118375346 -0.002220568 0.015266249 -0.08184382 0.06574717 -0.083476454 -0.07915333
마음 -0.10246025 -0.3769915 0.10486397 0.10585022 0.093188725 0.056721788 -0.14657028 0.012289232 -0.047771778 -0.09468693 -0.09182346 0.0410305 0.07418462 -0.07575275 -0.008037115 -0.00011459095
소재 0.11288207 0.075523 -0.029765772 -0.011668131 -0.04844451 0.098894894 0.018244637 0.22427776 0.018244911 0.097826354 0.04858268 -0.083085015 -0.058432944 0.163784 -0.1274293 -0.09653051
속 0.034264933 -0.106661975 0.05585285 0.022107577 0.037497215 -0.0068995953 -0.061683625 -0.21534897 0.01778582 0.01787758 -0.02393604 -0.026566423 -0.0065028435 -0.015463273 0.050949767 -0.03631486
공포 0.06900968 0.034213595 -0.068730794 -0.0428526 -0.05941925 -0.10492518 0.03429869 -0.04708548 -0.007472674 0.01587186 0.055828024 -0.05752258 -0.022596495 -0.004775391 0.04153519 -0.001024758
아서 0.0053284382 -0.11630298 -0.037843224 0.011235204 0.0008100795 -0.005899189 -0.01219643 -0.035086434 -0.016843576 0.068465985 -0.04885159 -0.04394955 -0.036813125 0.04900479 0.014712114 -0.04208996
다른 0.041625887 -0.2869286 0.020919245 -0.014336002 -0.0017187938 0.034683786 -0.009282372 -0.053024534 0.089275844 -0.052959748 -0.0008648016 0.030346787 -0.045418337 -0.025990449 -0.028413996 0.13488434
씨 0.035667587 -0.18559805 0.004310886 0.012569102 -0.05161538 -0.002513994 -0.024538923 -0.1111849 0.028114755 0.04740931 0.01849839 -0.027784234 -0.019986186 -0.029615281 -0.029867755 0.09377083
인생 -0.08810779 0.15722764 0.06355846 0.031060329 0.037394196 0.13360642 -0.13146694 0.31757456 -0.057915784 -0.07703392 -0.029095192 0.12383692 0.075092725 -0.08658666 0.10842417 0.046213713
~~ -0.09325911 -0.048819087 0.033107627 0.08564516 0.10062348 -0.09804126 -0.0236727 -0.200616 0.047422204 -0.04494706 -0.018341739 -0.02374437 0.029531343 -0.09042322 -0.0026179154 0.06578915
짜증 0.20501086 -0.10905163 -0.15177213 -0.1318963 -0.20652217 0.11416967 0.2003712 -0.073213615 0.20433088 0.15430135 0.10698294 -0.1655752 -0.15148726 0.2578418 -0.2233215 -0.1263046
짱 -0.12959482 0.12475109 0.06076723 0.13396128 0.13274673 -0.23870608 -0.12193091 -0.12805715 -0.10273419 -0.052185196 -0.13625586 0.047691338 0.11715957 -0.19504121 0.11622817 0.32098746
뿐 0.061653137 0.043625508 -0.08317583 -0.080846354 -0.07146554 0.068406574 0.14558013 0.050282728 -0.02702889 0.07257299 0.05508359 -0.046461012 -0.113341294 0.07322435 0.024096766 -0.09758514
은데 0.027448425 0.16304927 0.060864624 -0.026038496 0.0047139507 0.11533934 -0.0206393 0.19603238 -0.04354409 -0.026876207 0.02591645 0.054160584 0.08521593 -0.05329952 0.081982695 0.11843139
별 0.01847051 -0.091678746 -0.04001012 0.0038713815 0.005099746 0.099483 -0.045072746 -0.20838201 0.022983354 0.04690834 0.005652161 -0.0085642 0.017379481 -0.03366233 -0.014583325 -0.22175212
아요 -0.08149749 -0.19699386 0.023806673 0.06219773 0.027583564 -0.050083045 -0.07843736 -0.04193456 -0.027904259 -0.0436498 -0.027549146 0.0651478 0.04925725 -0.09174059 0.012067165 -0.029366719
유치 0.14221457 -0.19111596 -0.09601296 -0.13898456 -0.21220712 0.25849205 0.15643853 0.017902996 0.039493635 0.14402394 0.07638503 -0.043635968 -0.17007552 0.24127083 -0.21413845 -0.2955744
가장 -0.017863903 -0.09483409 0.009184487 0.046318453 0.053811774 -0.015205086 0.046251334 -0.21123801 -0.03934147 0.058488168 -0.0360859 0.003912729 -0.03354846 0.00016245086 0.07321509 -0.10410409
필요 -0.07926766 -0.3078618 0.13910525 0.086489625 0.09678878 0.020835346 -0.20286438 0.31248263 0.023077425 -0.2536084 -0.13843758 0.100973345 0.044939607 -0.14992534 -0.050100487 0.31308198
음악 -0.08164402 -0.10767196 0.098563686 0.024607645 0.021578666 0.046429597 -0.05182716 0.064344466 -0.038823966 -0.103664875 0.007583442 0.05405385 -0.00073649664 -0.026332023 -0.0023303558 0.029802997
) 0.017640222 0.008229416 -0.00815739 -0.003593743 0.016973564 -0.008875229 -0.045924716 0.025501074 -0.015223257 -0.0269745 0.032880586 0.008563204 0.02362171 0.009846787 0.032230105 0.03870088
일본 0.0781372 -0.111784816 -0.0032003676 -0.065150484 -0.027721534 0.108346164 -0.018795626 0.019235183 0.07503403 -0.019229675 0.057971798 -0.10265987 -0.032508746 0.04372387 -0.11987933 0.060884684
낮 -0.10415789 -0.11395211 0.13176453 0.069284305 0.23053013 0.021437543 -0.17490937 -0.12557691 -0.021661865 -0.22759376 -0.10171842 0.1100907 0.20950842 -0.28714016 0.08834419 0.15156765
아이 -0.01463455 -0.08984661 0.0259307 -0.025228364 -0.0017351406 -0.07657038 -0.026909383 -0.11880339 0.01594749 -0.04185882 0.0005700614 -0.0065444554 -0.03738861 -0.02881513 0.018439079 0.09875549
;; 0.07439546 -0.048013687 -0.034952644 -0.10202501 -0.018076098 -0.005433947 0.002303251 -0.10404867 0.03477005 -0.008811907 0.047121447 -0.066017844 -0.11642289 -0.06887648 -0.10871189 0.011884018
오 -0.01601768 -0.060698595 0.002981256 -0.0037759938 0.07438525 -0.03590686 -0.0015826459 -0.04825909 -0.0025012805 0.018099565 -0.017043045 -0.034037165 0.07315349 -0.072575055 -0.004922848 0.025698557
반전 0.013872512 0.09067266 0.02679109 0.099847235 -0.022795808 0.04253956 -0.04678757 0.09877869 -0.07515216 0.0013269524 -0.07136052 0.006998496 0.011015496 0.034325134 0.06191771 -0.10415766
수준 0.06868805 -0.18720917 -0.124195725 -0.066789396 -0.110450506 0.060065668 0.13221619 -0.07661801 0.097769596 0.04429711 0.062404867 -0.09737923 -0.085797414 0.037281394 -0.107870966 0.015546588
다니 -0.01209284 -0.06520099 0.039361708 -0.052689146 -0.028267276 0.03400064 -0.03683423 0.09095894 0.1004063 -0.039102193 0.07662195 0.002251923 -0.026865164 0.08211911 -0.09982394 0.035618536
웃 -0.0007834084 0.028578615 0.07201287 0.020516597 0.06315986 -0.012516538 0.002176776 -0.035941537 -0.0029261932 -0.10616534 0.055133253 -0.023465566 0.0485244 -0.07913883 0.013678186 0.045122873
매력 -0.119613506 0.46397814 0.054172873 0.059018377 0.15884386 -0.13429774 -0.10531499 0.2953929 -0.17942204 -0.020406611 -0.06979258 0.097076364 0.037585724 -0.08799017 0.14835106 0.008951907
맞 0.06113384 0.10027658 -0.103131235 -0.022304013 -0.037734218 -0.07464048 0.08994445 0.08709795 -0.002431554 0.0421098 -0.022598973 -0.057003815 -0.05259199 0.08971503 -0.023421941 -0.07320167
인지 0.027528076 -0.15847546 0.0046539805 0.04678176 -0.06862164 0.043620624 -0.03566345 -0.1208618 0.0068723517 0.047673084 0.014976631 -0.07489774 -0.004620342 -0.0075384867 -0.07725103 0.035144582
가슴 -0.103147924 -0.25522363 0.049958616 0.10925282 0.075244725 -0.1203865 -0.065412976 -0.22537227 -0.08527926 -0.055004578 -0.137476 0.14332987 0.10533975 -0.14924751 0.11371132 0.040071327
없이 0.06951062 0.17289452 -0.051611222 -0.035170842 -0.011574445 0.14245586 -0.010637511 0.1146555 -0.010786078 0.05747112 0.082236476 0.019930685 -0.043301485 0.03019783 0.057223838 -0.19454224
원작 0.11427573 -0.035087015 -0.10695673 -0.042571414 -0.023813335 -0.009998056 0.046272893 -0.1187758 0.12676485 0.042266198 0.124158725 -0.08449099 -0.05046011 -0.045258 -0.10897799 0.02707486
ㄷ -0.057289224 -0.15325397 0.0027021558 -0.019389817 0.004090122 -0.030733356 -0.06241052 -0.014093472 -0.017916257 -0.03156143 -0.006736731 0.0023249665 0.004702947 0.01193786 -0.011556077 -0.03284991
인간 0.008439934 0.050854035 0.07579881 0.0138354935 0.039464857 0.10880511 -0.07738663 0.20512563 -0.044224367 -0.112077296 -0.01796063 0.104092985 0.032492418 -0.09249454 0.06942396 0.09632022
데 -0.046109907 0.031440105 -0.042885628 -0.03171619 0.041137572 0.024571018 0.021933205 0.07681491 -0.022820663 -0.03628849 -0.05533166 0.014208596 -0.04317335 0.045811985 0.009922208 -0.05834394
굿 -0.07656205 0.0139856655 0.14139977 0.2235828 0.14412853 -0.27884933 -0.11000257 -0.07087283 -0.1910504 -0.09644828 -0.20645921 0.12883408 0.20264155 -0.23534672 0.24719067 0.13018169
ㅠ 0.0007905507 0.079991475 0.0687772 0.0012242837 0.013550612 -0.057580955 -0.032135494 -0.0860745 -0.00897903 -0.08759915 -0.005132785 0.04001478 -0.0028647857 -0.0035221209 0.08789794 -0.009988823
높 0.098861285 0.12801982 -0.13069999 -0.011168101 -0.12870026 0.038407512 0.09766358 -0.018445501 0.016826717 0.14401504 0.06951758 -0.04047935 -0.029734416 0.089089364 -0.023687726 -0.115951076
밋 -0.02268212 0.019183729 0.08361667 0.007336322 0.08925016 0.040197384 -0.12878214 0.15137173 -0.02507364 -0.08173333 -0.02275087 0.10620149 0.047175635 -0.05060139 0.06661448 0.03981549
( 0.015119366 -0.06319052 -0.030714028 0.024966698 -0.017684976 -0.0073525016 0.0094521325 -0.07465504 -0.018568315 -0.016118264 -0.0024327275 -0.018482972 0.0020913335 0.0227647 0.009682151 0.049371526
만드 -0.013980208 0.13594848 -0.03432474 0.046914347 0.015605642 -0.009326909 0.06755928 -0.0485368 -0.044001766 0.10183414 -0.034767263 -0.08672045 -0.011028837 0.005027339 0.036424767 -0.100408845
급 -0.0050833784 0.016180351 0.031909153 -0.005596594 -0.0013387746 -0.01617122 -0.022853523 -0.10949638 -0.047795784 0.009633298 -0.04087168 0.023825087 0.029842092 0.06469984 -0.004471989 -0.094808325
눈물 -0.16464029 -0.039777618 0.10626081 0.14089718 0.11553995 -0.2193557 -0.1092102 0.0051636323 -0.06073968 -0.15072162 -0.15587138 0.18036048 0.098259866 -0.17577037 0.13103817 0.19861212
보여 -0.01193528 0.06319723 0.006947704 -0.0016905556 0.04786557 0.07222131 0.041197397 0.04322392 0.018706026 -0.028979229 -0.011918563 0.01173398 0.04138598 0.088538036 0.017800424 -0.0018558152
준 -0.016561039 0.20230733 0.033931736 -0.033504978 0.019686097 0.037109934 0.03708873 0.08731066 -0.091297865 0.044448413 0.030896243 -0.057655826 -0.00018678592 0.064937964 0.031112641 -0.041231185
찍 0.07896111 0.11354947 -0.05725391 -0.06849095 -0.024215573 -0.12654804 0.08480634 -0.07367192 -0.0036261322 0.10009989 0.10097357 -0.094842464 -0.03757409 0.16324866 -0.030655812 -0.068640895
인가 -0.0034636906 -0.16810241 -0.048970476 -0.009043595 -0.07273697 0.023212856 0.02198714 -0.05021162 0.10565404 -0.0029225377 0.022532135 0.013386476 -0.10517518 0.07700939 -0.07945849 0.009683574
노 0.25947493 -0.121661596 -0.19513881 -0.30285218 -0.26300442 0.22137916 0.26585278 -0.025933057 0.34619895 0.12660524 0.30360183 -0.22262682 -0.3231162 0.14564438 -0.26626065 0.11664037
을까 -0.015660372 -0.08862851 0.02969656 0.007906105 0.03776359 -0.031938564 -0.018951386 -0.120410115 0.07001766 -0.065916285 0.028128786 -0.021485383 0.035128377 0.025941169 -0.0582067 -0.0052547087
용 0.00939545 0.007386543 -0.04388957 0.008332126 0.020566566 -0.034731735 0.05512517 -0.15994065 -0.01708142 0.002826476 0.024800245 -0.0017620955 -0.0140868 -0.0070766713 -0.013279337 -0.048696656
코미디 0.0332797 -0.049233958 0.01889182 0.027555002 0.009574392 0.04098884 0.042984955 0.027154345 -0.02880332 0.05952827 0.02481689 -0.027129333 -0.046791974 0.06891034 -0.053959664 -0.08813433
마 0.040948812 -0.08296229 -0.080187045 -0.082431495 -0.021548588 0.031623237 0.043672904 -0.14461128 0.09659844 0.01842256 0.003078537 -0.07978277 -0.015978847 0.061505266 -0.082453966 -0.08206688
화 -0.01821754 -0.04286637 -0.023433337 -0.034584206 -0.017030444 -0.039142076 0.036433335 -0.026485452 0.021831233 0.06011271 0.0385528 -0.05033469 0.0052149515 -0.03347302 0.011005611 -0.029784132
신 -0.007925409 0.12419872 -0.019682793 -0.022104327 0.01683408 -0.10607201 -0.021050353 -0.17942958 -0.04425134 -0.03766437 0.049074493 -0.019216875 0.0884177 -0.0918816 0.07991995 0.14250433
모든 -0.06136331 0.070142224 0.050176904 0.026125612 0.067696676 -0.11651764 0.004960712 -0.17524736 -0.0396009 0.00921868 -0.030011766 0.07591831 0.12027088 -0.03892453 0.048332278 0.010135478
쓰 0.023410125 0.045575466 -0.07351483 -0.090024695 -0.050660938 -0.047594566 0.09700644 -0.007869661 0.02821606 0.0488912 0.04446517 -0.054222714 -0.04700947 0.10806536 -0.11338113 0.102678984
여 0.0016977983 -0.1787025 0.005517924 -0.01389033 0.06882809 0.0025586933 -0.0087486245 -0.1405055 -0.017505767 -0.032865413 -0.07711693 0.028726023 0.022899657 -0.02916077 0.015981413 -0.09940246
5 0.040646598 0.12410353 -0.021887835 0.013938226 0.02300312 -0.0907633 -0.013448772 0.0040561445 -0.013213319 -0.05884367 0.08139664 -0.010510867 0.068442866 -0.07515156 0.1057504 0.12643358
아직 -0.08628945 0.29074365 0.048891336 0.016098415 0.06819107 -0.14457163 -0.07603592 0.13212973 -0.018524343 -0.012425173 -0.0122393565 0.064737186 0.02808722 -0.061982144 0.037590135 0.119194895
추천 -0.10763408 -0.047700096 0.10361139 0.071958385 0.09251077 -0.16995648 -0.0034365498 -0.028644204 -0.11763577 0.00236621 -0.09751969 0.094007455 0.0062445975 -0.101893 0.025114551 0.09003267
처럼 -0.039466865 0.09637381 0.0058335597 -0.019417271 0.032116514 -0.00117906 0.03491331 0.12392069 -0.08118133 0.0466805 0.03532386 0.005937555 0.0055277213 -0.032286815 0.092533536 -0.04823499
눈 0.010599081 -0.12610589 -0.0019760781 -0.041741617 -0.10712487 0.1008279 -6.920333e-05 0.012374172 0.12457126 0.042398132 0.09431652 -0.04202996 -0.038529035 0.012690597 -0.16442834 0.07555318
아닌 0.078429125 0.11192479 -0.12024204 -0.04301183 -0.12510054 0.16030619 0.116640426 0.1349243 0.08689127 0.07001232 0.07836342 -0.0505183 -0.08922298 0.06715629 -0.025323493 -0.017006604
자체 0.035559293 0.045181293 0.0003108355 -0.050684407 -0.018729545 -0.0102353 -0.028001748 -0.121280745 0.0040877173 0.042033907 0.033226855 0.023384735 0.009360668 0.0029762457 0.05610091 -0.10259846
울 -0.1597941 -0.27086318 0.13988839 0.15131705 0.18724215 -0.01534799 -0.13474146 -0.16001333 -0.06849499 -0.096478835 -0.08757499 0.17771563 0.15783411 -0.2252384 0.1371557 0.12934972
몰입 -0.08449207 0.09200685 0.012952885 0.12963022 0.14072374 -0.034264766 -0.07132071 -0.13475119 -0.15259728 -0.02624899 -0.07773846 0.1241646 0.06083576 -0.05215069 0.18464169 -0.305988
4 0.024261542 0.03043455 -0.09355973 -0.0024171085 -0.09103038 0.061805077 0.037278324 -0.041039873 0.016721066 0.015747868 0.061654136 -0.076135024 -0.0423262 0.08031061 -0.02161473 -0.03487618
대박 -0.14370546 0.07797311 0.17533065 0.14599116 0.17550077 -0.08059665 -0.18394321 0.14566301 -0.15935709 -0.11723178 -0.08922337 0.18685658 0.118280806 -0.14421557 0.2123802 0.014634196
몇 -0.041796483 -0.0666589 -0.023445169 0.11772306 0.040492162 -0.1897119 -0.06956154 0.005593633 -0.011099748 -0.037149455 -0.112318754 0.042312782 -0.052277144 -0.086670466 0.01790558 0.14561664
스럽 -0.03006471 -0.036228478 -0.020377686 -0.0056143086 0.016857028 -0.012499237 0.023079239 -0.13327113 0.025591373 0.0013860418 -0.00022795792 -0.05037686 0.030928716 -0.010882777 -0.0048386054 -0.05501016
실망 0.24044879 -0.28048688 -0.2342819 -0.3059419 -0.23657943 0.34393314 0.23757564 -0.26306194 0.3790847 0.13218282 0.31823558 -0.1804794 -0.24279821 0.07657337 -0.39063773 -0.03723234
는다 -0.054580066 -0.28021443 -0.015627267 0.06519595 0.071390845 0.0023823848 -0.082229294 -0.32510266 -0.021964768 0.011331118 -0.0795415 -0.020270778 -0.009769662 -0.10801035 -0.07535819 -0.07180746
대한 -0.025469078 -0.028811878 0.034332577 0.103951685 0.09268187 -0.1349681 -0.017521165 -0.08246479 -0.077026084 -0.08478653 -0.037639305 -0.008955889 -0.014895868 -0.10434956 0.005251195 0.1716218
죠 -0.038356636 -0.0080387695 0.006495973 0.09362017 -0.0054251705 0.018765103 -0.044223677 0.025530133 -0.08382789 -0.046353523 -0.04191431 0.0822464 0.066342436 -0.09045334 0.03688107 0.03463966
란 -0.04716187 -0.13923843 0.016053418 -0.008219317 0.0016048513 0.00582752 0.018809589 -0.18069465 -0.05504075 0.022250718 0.029437017 -0.03854182 0.0556315 -0.07433302 -0.0017160173 0.050494865
그런 0.0478236 -0.07180326 -0.014683204 -0.019965455 0.026977286 0.011011704 0.036186207 -0.05860034 0.055275094 -0.031626876 -0.03554492 -0.024358928 0.010402507 0.024895426 -0.016811598 0.0036441078
솔직히 0.1067915 0.03404802 -0.067595184 -0.014708411 -0.06834326 0.13309331 0.011829336 -0.024908172 -0.018336048 0.045485627 0.0066707884 -0.014965381 -0.038945865 0.057160564 0.0038198933 -0.08422403
캐릭터 -0.034537874 -0.09059034 -0.009785711 0.045978308 0.015476652 -0.1247042 0.060911335 -0.08179097 -0.016637757 0.05815478 -0.028712027 -0.028580436 -0.063559845 0.04378815 -0.01856101 -0.10742956
ㅎ -0.08478052 -0.08585844 0.04334541 0.070136175 0.13855131 -0.11769821 -0.023598181 -0.41482386 -0.054631393 -0.013617346 0.004085135 -0.013413274 0.101161 -0.14122857 0.14076267 -0.026260966
모두 -0.094289266 0.34653825 0.03240906 0.114261925 0.06186455 0.09203913 -0.0660137 0.17530534 -0.17250162 0.046926904 -0.08260073 0.11531642 0.11264611 -0.012236836 0.225729 -0.16785121
아주 -0.078171104 0.17220399 0.0066724936 -0.021345593 0.088935405 0.00040445212 -0.033779744 0.048798118 -0.058483172 -0.017226504 -0.017953506 -0.019506434 0.014971278 -0.030143322 0.010947068 -0.024380883
- -0.05489258 -0.023759281 -0.020349149 -0.057822254 0.00012444204 -0.021862706 0.012815312 -0.014567388 0.009190417 -0.0015052203 0.03854736 0.012245637 -0.018628111 -0.029746763 -0.0117547205 0.012336175
가족 -0.040341277 0.2190739 0.023891034 0.0050588883 0.08844565 -0.06677604 -0.03349241 0.13208528 -0.04848261 -0.05136369 0.012035799 0.06953402 0.0466419 -0.03525116 0.098882936 0.102422304
여운 -0.29546353 -0.027144922 0.27429247 0.3617699 0.25717136 -0.2475827 -0.2537113 0.2706287 -0.25723168 -0.19069596 -0.34503704 0.24961598 0.13604239 -0.22087342 0.15826821 0.12402636
건지 0.05951059 -0.08951074 -0.04916639 -0.087350845 -0.059555545 0.07388546 0.045978494 -0.056028828 0.078733884 0.06495565 0.13686047 0.0047993218 -0.010601608 0.1392215 -0.05682908 -0.08969796
전혀 0.0743724 -0.07157682 -0.058299303 -0.021765752 -0.15306984 -0.0067498973 0.10921687 0.22131121 0.059630387 0.011430579 0.0217002 -0.104004614 -0.13183948 0.060712136 -0.13528305 0.09019984
연기력 0.012972132 -0.015927166 0.04228657 -0.006384736 0.03390525 -0.028452773 -0.047536887 -0.13498476 -0.07360366 0.027314868 0.008477072 -0.03828298 -0.037929066 -0.03332996 0.07676331 -0.122533165
나라 0.020009374 -0.16515666 -0.04167387 -0.0025936458 -0.010990006 0.08389574 0.043627072 -0.20237267 -0.0043329494 0.03139865 0.019797444 -0.06313534 0.007472607 -0.005546999 0.0575171 -0.0150074
후 0.05572053 0.012750053 -0.05309292 -0.03520666 -0.052714758 0.11103968 0.041992664 0.010218598 0.03942508 0.062562205 0.08959429 -0.073209696 -0.04899853 -0.0005304975 0.023023428 -0.011902279
될 -0.020781042 -0.0026615844 -0.017102964 -0.0077120936 -0.07277364 0.037812065 0.03859485 -0.124484226 0.090987556 -0.007819239 0.08043316 -0.059945658 -0.005855784 0.026517875 -0.07810703 -0.014913393
다면 0.024439111 0.045585006 -0.05329296 -0.10129947 -0.06809612 0.053471107 -0.027722701 -0.012390993 0.09072941 -0.04835713 0.017516665 -0.013118107 -0.015163395 0.024900522 -0.057946313 0.13358726
뭔가 -0.010569095 0.084011205 -0.009117565 0.022099221 0.077308886 -0.035960577 -0.03476324 0.053784523 -0.012149846 0.00059946964 -0.014130446 0.038263783 -0.029279282 -0.0043952046 0.024917379 -0.012469038
그래도 0.033576757 0.3053999 0.03626944 -0.037912227 0.0030822828 -0.18580891 -0.023556791 0.1441688 0.042278208 -0.04795506 0.06273331 -0.0818138 -0.0009615314 0.062747814 -0.041523445 0.22195503
; 0.017095653 0.0679349 -0.085951984 -0.09981156 -0.051081274 0.053864647 0.005376387 0.1641147 0.07703872 0.044460453 0.089596175 -0.04009535 -0.057431567 0.11480876 -0.07672509 0.006626841
시리즈 -0.06784058 0.07813788 0.033524454 0.025002185 0.021490844 -0.09435237 -0.004624095 0.003158951 -0.0033134734 -0.027993781 -0.009352857 0.04368437 0.06541263 0.01627111 0.07581873 -0.048941992
근데 -0.006159915 -0.19393036 0.074065685 0.068314694 0.020582665 -0.025249911 -0.07612149 0.0037246072 -0.0076681706 -0.037839692 -0.006768086 0.012031574 0.019683167 -0.07646732 -0.039922494 0.074457966
작 -0.04102963 -0.22728124 0.061725922 0.029727325 0.029549604 0.08582634 0.006160045 -0.06615603 0.09040395 -0.023737961 -0.025510855 0.07765668 0.03970024 -0.021369997 -0.051264394 -0.06274456
표현 -0.15113556 0.23883542 0.115103476 0.070260465 0.09944823 -0.08957588 -0.05246686 0.26286095 -0.07777353 -0.051171273 -0.039309725 0.14287026 0.12395027 -0.07221566 0.16258733 0.045361582
모습 -0.02865285 -0.024487996 0.039975893 0.106432535 0.10753731 -0.13856767 -0.051765695 -0.22755148 -0.09669373 0.10192009 -0.027650487 0.038244233 0.052616455 -0.07969128 0.062399507 -0.013940747
공감 -0.02800827 0.3547701 0.039218344 -0.00026478563 0.064543754 -0.20300695 0.011163287 0.020452721 -0.14854178 0.03533196 -0.018179914 0.011021403 0.03511359 0.04677154 0.095145 -0.024480166
계속 -0.07475216 -0.031207828 0.01454519 0.11241519 0.04534102 -0.3394834 0.024984732 -0.2131397 -0.12464062 0.010267794 -0.071294904 0.031656604 -0.04230615 0.0071428274 0.028100608 -0.029443786
먹 0.09422768 0.10074373 -0.030522529 0.008066268 -0.05435286 0.08539905 0.03552394 0.13006271 -0.03706236 0.054789662 0.0664352 0.014801377 -0.05920756 0.05265281 -0.045363892 -0.019269696
"" -0.024314761 0.13160019 0.025504882 0.0074873976 -0.0021691786 -0.024943287 0.024423037 0.110427454 -0.0014945925 0.008947826 -0.010632658 0.029038947 -0.06953113 0.04266371 -0.06146683 0.05974138
제목 0.020554408 -0.07117599 0.050239276 -0.043358006 -0.0049587316 -0.02493771 -0.024232421 -0.364218 0.0033597741 0.023508038 0.0031838487 -0.05067461 0.054831035 -0.016357038 -0.00867897 9.373587e-06
7 -0.021171007 0.1126783 0.026148783 0.0076974444 0.0037579336 0.06517239 -0.03956495 0.2795401 -0.02499848 -0.06468611 -0.092366636 0.008616998 -0.035593305 0.014651097 0.023232559 0.09841443
이랑 0.03478491 0.008573425 0.02336434 -0.04789442 0.0023742272 -0.0066314903 0.051582653 -0.07684328 -0.025312854 0.0025107577 0.050818797 -0.0081906915 0.049950894 0.01326189 -0.013842413 -0.062447365
극장 0.01882902 0.15436774 -0.11067521 -0.02137191 -0.033459313 0.052066434 0.04022094 0.059029877 0.09101664 0.06749305 0.03444696 -0.047496792 -0.113076985 0.11752909 -0.03200538 -0.046947364
치 -0.00037657146 -0.112521 -0.053599898 -0.028484328 -0.066042066 0.10209911 0.026141655 -0.0111804 0.06681343 0.027899751 0.046792556 -0.007110747 -0.08371461 0.08184969 -0.06452454 -0.032746583
비 0.047187265 -0.014042493 0.0018476347 0.021031698 -0.03243829 0.03142178 0.08132772 -0.060169097 0.028041534 0.031607494 0.057316467 -0.04814717 -0.007748912 0.054523777 0.0035207015 0.01150694
이걸 0.08981597 -0.0421929 -0.04053301 -0.061023425 -0.034765337 0.10955167 0.025852185 -0.10628871 0.06787557 0.10311027 0.13162693 -0.101227745 -0.119091175 0.13134022 -0.034198076 -0.1491936
진 0.024971362 0.09048614 -0.054021556 0.049392164 -0.11180692 0.10906991 -0.06600128 0.3115954 -0.13262634 0.02893375 -0.045515448 -0.11272881 -0.074979246 -0.005919703 0.056773193 -0.106432945
바 0.09735715 -0.080036044 -0.10819875 -0.043324895 -0.07796931 -0.04212258 0.09249013 -0.06469774 0.12568529 0.11286244 0.10363444 -0.14101385 -0.167016 -0.001404887 -0.13766986 0.010049241
대사 0.0650319 -0.15347363 0.010257265 -0.017277896 -0.0030300317 -0.06362381 0.018836746 -0.22104076 0.006248442 0.08789777 0.0015828343 0.013632246 0.005675849 -0.052378234 -0.020922584 -0.021318212
부분 0.04491041 0.009258642 -0.069892704 0.034148246 -0.035166956 -0.044742856 0.05436113 0.044684377 0.04076145 0.0261093 -0.047420703 -2.0009786e-05 -0.06500169 -0.047820672 -0.07477357 0.08998593
그렇 0.063518405 -0.19822425 -0.11390235 -0.053032514 -0.075046286 0.121448 0.064762875 -0.13816321 0.042863864 0.08687008 0.1070507 -0.0025871177 -0.027765898 0.015375188 -0.0682939 -0.15520404
개봉 0.067493044 -0.13043803 0.015979437 -0.04899064 -0.04680668 0.06416007 0.0385455 -0.10712893 0.012524044 0.032926857 -0.029022936 -0.0445523 -0.04957978 0.045011498 -0.08541968 -0.0746644
0 0.14858033 -0.021070072 -0.15641402 -0.069250405 -0.021017807 -0.31653568 0.19503558 -0.291124 0.018910408 0.28286272 0.026712546 -0.16289449 -0.13814893 0.06731384 0.0035047266 0.016925355
OO 0.0696726 0.113602065 -0.087561145 -0.08521342 -0.09163995 0.11161971 0.07153455 0.012681359 0.03267723 0.06845815 0.07421202 -0.040914338 0.018188192 0.10832109 -0.03503551 -0.114338845
대단 -0.039123476 0.23791161 0.069698565 0.0659332 0.072122686 -0.013961731 -0.10402138 0.1174413 -0.08126937 -0.12690447 -0.0051994342 0.03409611 0.11083436 -0.1098486 0.100523256 0.042145226
어디 -0.002337233 -0.053751763 -0.01617057 -0.0021299985 -0.03346283 -0.031423878 -0.031386662 -0.009082932 0.093182154 -0.049384404 0.029522156 -0.017820513 -0.04759014 0.0011378293 -0.02529322 -0.007612282
작가 0.10424532 -0.003305303 -0.038509015 -0.0046107736 -0.05246315 -0.15847284 0.07794502 -0.2561847 -0.058267962 0.089017645 0.051789068 -0.061983053 -0.020457154 0.024668796 0.028875189 -0.18126513
된다 -0.15601775 -0.2329531 0.075108714 0.038825344 0.0670857 0.045918588 -0.13696764 -0.26119187 -0.09310828 -0.052973412 -0.1164427 0.08905527 0.12130198 -0.12224991 0.008046197 -0.07940677
아쉽 -0.021006357 0.020140333 0.06396912 -0.04543074 -0.06146111 0.06854395 -0.042132784 0.20892352 0.08223276 -0.112862885 0.06789572 0.016429808 0.020675572 -0.08529251 0.014079444 0.0891407
기분 0.03693427 -0.19788307 0.008656571 -0.026885781 0.017778844 -0.056384098 -0.0017975214 -0.27991515 0.028972177 0.034402627 -0.057099074 -0.04315178 -0.058782596 0.049849734 -0.013108088 -0.11614344
제 -0.020299861 0.12354325 -0.028381847 -0.024708504 0.029785402 0.09988018 -0.038664963 0.03860689 0.0516062 -0.031834908 0.031239199 0.0032900407 -0.0028837295 0.06422302 0.054005526 -0.08061834
진심 0.03395349 0.12837102 -0.0026206267 -0.10564292 0.031204917 0.02038244 -0.0019710956 -0.04720389 0.03147 0.017344149 0.017962262 -0.036493406 0.019795986 0.05166604 0.03607019 -0.09201467
타임 -0.009516864 -0.03964454 -0.02622989 -0.09000324 0.0010321847 0.11761008 -0.008074828 -0.13786033 0.042928148 0.015238667 0.074318014 0.015805803 0.023767542 0.0045012715 0.050474655 -0.035889123
/ 0.017272014 -0.16180281 0.023880368 0.02926413 -0.00065115 -0.0031785935 -0.0058633937 -0.040584207 0.04963832 0.01194715 0.0018192343 -0.024456972 -0.014373461 -0.053734463 -0.011518779 0.046064973
웃기 -0.024568811 -0.13270457 0.007104201 0.105137356 0.004937832 -0.09013181 -0.051168125 -0.11470999 -0.064492665 0.047862664 -0.042593855 0.024061736 0.0039105457 -0.113711886 0.013463883 0.017330108
보이 -0.017022006 0.009423862 0.026429668 0.0066787153 0.032406475 -0.13773279 0.028975876 0.032502808 -0.032694165 0.038893342 0.016184635 -0.023659006 -0.011449375 -0.023191825 0.03392714 0.029040167
놓 -0.0130306035 -0.11064951 -0.030066524 -0.06956998 -0.054108016 0.16863343 -0.011727973 0.0055077984 0.05415022 0.008110238 0.08494653 -0.022172552 -0.05811721 0.0885672 -0.049917202 -0.08061633
해도 0.04516653 0.19797361 -0.05649684 -0.014141268 0.07020854 -0.06680388 0.065170996 0.16649577 -0.05415959 0.063580886 0.084268115 -0.0013116967 0.032040764 0.07191332 -0.008353839 -0.049886134
이제 0.025060682 -0.07184359 0.00521978 -0.03617894 -0.039414078 -0.028987335 0.055252228 0.10074297 0.028292248 0.05918296 -0.025435522 -0.056192484 -0.09109021 0.0755513 -0.10559107 0.12605533
물 0.0009072835 -0.22506787 -0.004352567 -0.03730816 -0.07003726 0.06927323 0.028922655 -0.016476186 -0.035732143 0.0190799 0.03396377 0.045085426 0.015141834 0.033897478 -0.021699546 -0.08011572
봐야 -0.003346314 0.016704788 0.049970627 0.054271538 -0.007938515 -0.06521198 -0.07184906 0.04087079 -0.037293795 -0.09080373 -0.06607014 0.02473066 0.015527019 -0.08034948 0.017209798 0.13596565
막장 0.08336147 -0.09661095 -0.055016294 -0.04714512 -0.1510241 0.2689804 0.11577778 -0.06716439 0.14636625 0.10113406 0.19165187 -0.14648283 -0.054774553 0.10448866 -0.099557586 -0.1746568
삶 -0.09575768 0.23222676 0.14186184 0.14613639 0.08369523 -0.05148288 -0.15957056 0.41073096 -0.1888404 -0.03498295 -0.15829657 0.11267857 0.078370824 -0.028564483 0.12832728 0.07843856
친구 0.0019545832 0.17403646 0.009014183 -0.057719823 0.0061973264 -0.044387724 -0.025329573 0.124357 -0.03867697 -0.000532452 0.06279264 0.034747683 -0.0012348598 0.051756904 0.015964352 0.062031772
잔잔 -0.043639917 -0.02616211 0.028379386 0.035292406 0.061581865 0.079651326 -0.06534835 0.112143904 -0.02679985 -0.0402147 -0.023423309 0.124206714 0.031232705 -0.093345575 0.042576104 -0.013555771
조금 0.042622462 -0.22402164 0.045329824 -0.077112325 0.02125657 0.07944981 -0.055203628 0.04019789 0.10221709 -0.057609227 0.04099594 -0.018501269 0.03028097 -0.12100219 -0.046541568 0.16867815
씬 -0.0025725863 0.0065945354 -0.019725075 0.03881649 0.015478785 -0.15144931 -0.052199446 -0.018531151 -0.093124226 0.039737247 -0.049929388 0.0472269 -0.010075825 -0.0229619 0.069940045 -0.0029909243
딱 0.037532486 0.1256313 -0.027627792 -0.066355735 -0.013208775 -0.003004433 0.055639103 0.03437055 -0.03279105 0.040696207 0.09754903 -0.070223086 -0.038256846 0.108918965 0.019158494 -0.058701497
영상 0.0045457194 0.06416292 -0.078637615 -0.0147565445 -0.055665642 -0.14441086 0.022405498 -0.1611181 -0.049552124 0.025624787 -0.066880986 -0.042597327 -0.0022854526 -0.015345103 -0.030659987 -0.078354575
억지 0.06968765 -0.17551987 -0.14876013 -0.1660829 -0.11411458 0.1804926 0.082368255 -0.09038845 0.16031158 0.10858046 0.1023848 -0.014013233 -0.06108263 0.14635798 -0.18729399 -0.14006388
찾 -0.031540595 -0.0440464 -0.011036753 -0.038314756 -0.00067416823 -0.03495594 -0.052353803 -0.04841984 0.03764299 -0.04950585 0.048774984 0.015993841 0.065850034 0.0083301505 0.036420844 -0.012759307
요즘 -0.106370986 -0.31285375 0.0571544 0.16213784 0.09557484 0.09825547 -0.13387309 -0.05425016 -0.036423903 -0.12579797 -0.09515649 0.094497226 0.09763171 -0.14682175 0.027598187 0.045895215
같이 -0.010714446 0.12421467 0.048711814 0.05338829 0.05736056 0.05718735 0.0145384185 0.025053719 -0.03636083 0.069475986 -0.050481036 -0.046337772 0.022288049 -0.028718648 0.025574721 -0.09684181
중간 0.032253157 -0.21797843 -0.053845786 -0.042282343 -0.09519198 0.14655903 0.039318394 -0.12348889 0.053411532 -0.0012996873 0.11810812 -0.012651607 -0.036333025 0.05375819 -0.06475868 -0.18848877
" 0.03151835 0.040414184 -0.02013495 0.07966612 -0.012658478 -0.070049 -0.047639158 0.051934794 -0.06673518 0.013031438 -0.01943296 0.022506997 -0.032670815 0.06379682 0.027297888 0.008553574
구 -0.03957505 -0.20234889 -0.005073536 0.040282477 0.038825832 -0.061871924 -0.01100088 -0.11466889 -0.026531579 -0.05072542 -0.065645695 0.02028658 0.044979498 -0.12410405 -0.0050273733 0.04315364
라도 0.00037878586 0.084036216 -0.06891866 -0.042382658 0.03819556 -0.065022655 0.063480936 -0.11484886 0.024522027 0.086751245 0.047291584 -0.041138146 0.036186356 0.053941466 0.025945475 -0.025559915
스릴러 -0.056754142 0.048984293 -0.026310043 0.05780974 0.01832793 -0.027259864 0.027359946 -0.08572318 -0.1042468 0.09185123 -0.026124544 0.047909953 0.02434264 -0.0025275117 0.071403354 -0.093593396
가지 0.036343988 -0.03924741 0.034961063 0.011278248 -0.05256783 -0.15225585 -0.042949207 -0.07623259 -0.012765504 0.031557914 -0.02505391 -0.052741475 0.035057623 -0.014307005 -0.045979884 0.11506142
8 -0.063783884 0.23435795 0.090525955 0.06254951 0.009900088 -0.00094332837 -0.10290978 0.18852341 -0.09815617 -0.094667636 -0.06723105 0.058654234 0.05735173 -0.027633438 0.12681273 0.14600015
믿 -0.012590429 -0.027291005 -0.0022857261 0.044782866 0.08160161 -0.14526936 -0.03103555 -0.09710722 -0.076573126 -0.040518977 0.0066438857 0.07911046 0.07114866 -0.11168288 0.02512921 0.08062632
싫 0.16144262 -0.07434323 -0.06122301 -0.20402221 -0.09630903 0.23765205 0.1055309 0.040992625 0.25824854 0.015907371 0.1414291 -0.08983118 -0.1640034 0.13979684 -0.17977245 -0.05778903
.... 0.022811923 -0.112827905 -0.08159526 -0.0012771379 -0.06455043 -0.036206782 0.020343622 -0.01698815 0.07231344 0.036746833 -0.0542945 -0.014990075 -0.12630576 0.079038605 -0.07707086 -0.08392948
나왔 0.023723647 -0.1900203 -0.034591716 0.007099749 0.04343784 -0.06052279 0.004314218 -0.11564978 -0.03531141 -0.0055951555 -0.011746716 0.042275425 0.00500159 -0.006744533 0.005503875 -0.033647418
아까운 0.048326157 -0.24766417 -0.10453083 -0.060125187 -0.08086509 0.06994045 0.026713945 -0.27792692 0.024006581 0.103562936 0.01882874 -0.098514065 -0.04314907 0.0609049 -0.08793638 -0.19139484
긴장감 -0.1056083 0.3627462 0.07625552 0.046351053 0.11113091 -0.20569424 -0.04604768 0.029143158 -0.22442944 -0.013939116 -0.067782134 0.024588795 0.019656453 0.019871451 0.19768968 -0.1638528
점수 0.025147196 0.1369293 -0.0037781377 -0.051957767 -0.021232368 0.072727166 -0.012352937 0.02272447 -0.0424485 0.028023284 0.0584635 -0.0141589185 0.049262192 -0.02063887 0.0598729 -0.013982159
개인 0.023240551 0.14763802 -0.078513764 -0.055562828 0.032621086 -0.036987938 0.047082715 -0.11493561 -0.036174998 0.06588564 0.056704573 -0.027101196 0.04115476 0.08093156 0.058880694 -0.20719911
제대로 -0.066109516 0.19163787 0.04188121 0.039897468 -0.014266399 -0.111783795 -0.009308016 0.1292693 -0.06399075 0.033509128 0.05018033 0.036632955 0.042951703 0.08249714 0.052643593 0.009554659
부족 0.09229048 -0.28151035 -0.0047666305 -0.041871134 -0.04424668 0.11941576 0.022735694 -0.006401113 0.19632365 0.035432525 0.06458596 -0.032232247 -0.09332822 0.026629284 -0.17039773 0.007979783
이유 0.019673165 0.07522041 -0.026102802 -0.02544594 0.016227059 0.03164086 -0.010684503 -0.24633719 0.0061577056 -0.0027420241 0.07108685 -0.03645642 0.14100249 -0.003156576 0.05500848 -0.08414566
노래 0.002287362 -0.032509908 0.03154269 -0.009539409 -0.0016022049 -0.05378533 0.05136485 0.020594502 0.034935243 0.027599968 -0.032428853 0.02894808 0.029190462 0.0032708433 0.014953023 -0.0015536846
만큼 -0.046136986 0.16793174 0.06287683 0.120075494 -0.0032696351 -0.014061118 0.023603901 0.09041564 -0.056399614 -0.039300893 -0.08339663 0.060391136 -0.016768172 -0.046977125 0.053338762 -0.08234631
라면 -0.03130685 -0.029269518 0.016720261 0.002060002 0.010500692 0.009760791 -0.044288866 -0.11114152 -0.0008651167 0.013891296 0.03006372 0.006065829 0.007418812 -0.0048655597 0.025185551 -0.095597036
시작 0.04333261 -0.0041799755 -0.026192 -0.06224943 0.003948006 -0.044478733 0.037875716 -0.21379498 0.026797248 -0.07427368 0.04195594 0.004923716 0.006562068 -0.117364794 0.013995823 0.046632793
구나 -0.015630813 0.03531257 -0.06746569 -0.007783406 -0.032657884 0.020155068 0.012316527 -0.02980993 0.04048471 0.019710781 -0.0040378934 -0.0029654463 -0.051982634 0.06834188 0.02421521 -0.049855664
잇 -0.053224918 -0.0045886817 0.009209163 0.03692459 0.011997183 -0.058842134 -0.0056138476 0.043258116 0.009100714 -0.016907873 -0.041717373 0.014285146 -0.03940261 -0.0085387705 0.0004999018 0.08566222
특히 -0.06777649 -0.2659126 -0.02210806 0.06830899 0.017000586 -0.16604869 -0.019025518 -0.2627314 -0.1116435 0.021971412 -0.13836081 0.015658265 0.02628473 -0.1001324 0.07428914 -0.033774808
한테 0.07081534 0.008774465 -0.04727207 -0.020461049 -0.014869912 -0.017244654 0.027775418 0.0081472555 0.017783923 -0.008408948 0.06526292 -0.0255333 -0.04281829 0.02452544 -0.103147775 0.061988033
날 0.00585145 -0.050006732 0.061539378 -0.048282057 -0.04597923 0.05912363 -0.07331128 -0.0319942 0.0871911 -0.061699413 0.019339928 0.076441616 -0.020187723 -0.002062093 -0.006723827 0.010190406
려고 0.06461815 0.12958887 -0.027161544 -0.091736145 -0.094455354 0.029028708 0.08448699 0.07683658 -0.03482173 0.08122012 0.047155786 -0.07522685 -0.047664825 0.14947735 -0.038409803 -0.16172735
제일 -0.011625829 0.0066416236 -0.007840784 0.008302959 0.019200014 -0.04771186 0.005846288 0.01817646 -0.059075344 0.06619268 -0.010094362 0.024465011 0.0069320225 0.024014864 0.025181498 -0.072245
아름다운 -0.14567322 0.12577198 0.10527862 0.17222226 0.0719778 -0.20017835 -0.15703921 0.24549368 -0.19038665 -0.12580805 -0.11304928 0.124125406 0.107462816 -0.117561884 0.14283076 0.12896524
시대 0.009337946 0.15770091 0.050390225 0.012344552 0.0088011455 0.025835859 -0.026121907 0.053386692 -0.04556846 0.017315317 0.050591253 -0.055939373 0.0077017895 -0.008911072 0.053296395 -0.14865904
ㅜㅜ 0.02398417 -0.14313935 -0.00366448 0.016809274 -0.010132418 -0.11301673 -0.028060919 -0.18093413 0.03866526 0.017761774 -0.07449524 0.016201375 -0.032420244 -0.11389983 -0.039234523 0.10610237
어떻게 -0.008244563 -0.114574835 -0.012614676 0.0020545602 -0.00022462114 0.056076527 0.0067113903 0.032234717 0.07590164 -0.067353785 0.061835486 -0.009418744 -0.05835433 -0.032520957 -0.07396548 0.0940991
엔딩 -0.030559242 -0.4697986 0.029222019 0.016142834 -0.011150136 0.05188571 0.0007435508 -0.09332669 0.036216494 -0.050355174 0.017593257 0.006256173 0.027558515 -0.06862639 -0.09772814 -0.011448008
당시 0.04333168 -0.2514081 0.042523395 0.014551091 0.009675945 0.11042146 0.015191188 -0.18162298 0.038843993 0.017089749 0.037904393 0.04021037 -0.037039313 0.036120072 -0.054473415 -0.1419737
하지만 0.06410621 0.26563066 0.043167036 -0.04888876 -0.015773054 0.30289328 -0.016815092 0.3758161 0.113838315 -0.104932226 0.060882706 -0.03831559 -0.051579423 0.07542581 -0.10147598 0.0138390865
나름 0.023774128 0.0033527277 0.065196216 -0.013195158 0.053278435 -0.06297915 0.00858209 -0.025977017 0.016365815 -0.041874908 -0.019738384 0.042783804 0.05032399 -0.07717492 -0.029372111 0.09492927
봐 0.060524426 0.018881472 -0.044376966 0.012739885 -0.0043407497 -0.108775705 0.029570194 0.05873393 0.0412732 0.05546226 0.03693687 -0.11055449 -0.058244843 -0.07793818 0.017357193 0.011205489
무섭 -0.025410058 -0.124149054 0.03911862 0.06541314 0.03408047 -0.16267364 0.022012372 -0.24782553 -0.055398215 0.059027456 -0.04536201 0.033737402 0.02330946 -0.08596832 0.052185044 -0.009234244
나온 0.023971556 -0.34478524 0.013042963 0.074636206 0.045543626 -0.00040016454 -0.011211659 -0.33393472 -0.010978445 -0.016074607 -0.045029595 -0.0018964992 0.024715766 -0.05864903 0.009169399 -0.062021803
명 0.042354688 0.08334055 -0.049768813 -0.03305091 -0.033990175 0.016107596 0.06646873 0.21323021 -0.012534315 0.08150323 0.038461246 -0.0017796351 0.011537252 0.1243766 0.019695824 -0.085903294
사 -7.465671e-06 0.06533625 0.0131196175 0.0367729 0.082954995 -0.0015889399 -0.07168297 0.053528074 -0.027937256 -0.046118382 0.05080128 0.06555343 0.06705629 -0.022396779 0.015028489 0.053146917
니까 -0.014111708 0.20027982 0.043787256 0.014281024 0.036062084 0.07027363 -0.09379866 0.029158395 0.0128640095 -0.04644105 0.041207314 -0.027830597 0.03772945 -0.07634018 0.12465383 0.06900818
오랜만 -0.07863165 -0.09816859 0.044836957 0.06133844 0.14847992 -0.0670024 -0.095579945 -0.15318964 -0.11503973 -0.054872498 -0.077258274 0.12249958 0.16390549 -0.10820871 0.1469016 -0.14159381
이것 0.042326514 0.090365745 -0.044461533 0.027496409 0.028388392 -0.11040538 0.011464243 -0.05386732 -0.02010137 0.08969589 0.009807231 -0.044218037 -0.0033606684 -0.017790265 0.032989062 0.047929805
해요 0.02145353 -0.078766614 0.0197554 0.09076964 0.056965996 -0.076307535 -0.0036622616 -0.15818126 -0.02350537 0.007555907 -0.042395465 0.008504411 -0.04967961 -0.09337681 0.017766278 0.13677633
9 -0.15708983 0.34568864 0.14391914 0.14934741 0.10656941 -0.063070826 -0.11035754 0.21368018 -0.20719706 -0.08832567 -0.13750896 0.13668406 0.11309782 -0.113504484 0.21736613 0.030804822
팬 -0.008650472 0.13201246 0.016843526 0.028938798 0.012576971 -0.082157485 0.0039076554 0.0030096292 -0.0830254 0.06241235 0.053381763 -0.032733675 -0.044184998 0.060130257 0.056248225 0.030331267
차라리 0.23208544 -0.36584705 -0.2729572 -0.27376634 -0.20510086 0.22592959 0.20805061 -0.4089522 0.40279838 0.25360417 0.28655502 -0.1860312 -0.21696045 0.1209508 -0.37033314 -0.25355342
절대 0.030058201 -0.1788252 -0.115165494 -0.076565295 -0.084023416 -0.015494181 0.019785212 -0.14197221 0.07921354 0.021419056 -0.02561223 -0.07133245 -0.06523201 0.07685867 -0.082012706 0.048079427
세상 -0.029986326 -0.14777857 0.08045701 0.058649544 0.01757194 -0.04455302 -0.0023308904 -0.20781136 -0.063774034 -0.040833402 -0.105672255 0.060875297 0.052802753 -0.06446789 0.029175265 -0.047940426
세 0.012990406 0.042725015 0.05100195 0.033962283 -0.003976378 0.03294181 -0.0062791924 0.07029855 -0.057376046 0.040306974 0.034746703 0.04845302 0.05083803 0.034318864 0.05929682 -0.052110862
못하 0.09842692 -0.19530962 0.016590683 -0.0794663 -0.077594034 0.14031494 0.07499144 -0.09852547 0.10551541 0.02970003 0.10708701 -0.035053156 -0.03353992 -0.03915817 -0.09053189 -0.01627778
의미 -0.011259952 0.0073143714 -0.0025310004 0.027290815 0.024254639 -0.059929416 0.0040415097 -0.037960388 -0.04866006 0.08071881 -0.05198629 0.05444948 0.054933347 0.0057880473 0.060948923 -0.049365558
던데 -0.07038051 -0.21155886 0.022327587 -0.06711684 0.0723994 -0.053227406 -0.0114140585 -0.41463894 0.032037336 -0.066609755 -0.019678736 0.083569475 0.078892305 -0.15187907 -0.007932706 0.14464861
봄 -0.0039473632 -0.12396076 0.036606923 0.02445653 0.040339805 -0.12841557 0.013623763 -0.26435375 -0.046458513 0.052584592 -0.07694031 0.03175718 0.07373168 -0.07319248 0.039888613 -0.097534
욕 0.1355112 -0.13689767 -0.08831354 -0.16593023 -0.14379996 0.29862237 0.1291652 -0.0047701495 0.30747226 0.013040897 0.30514258 -0.11177391 -0.108268395 0.19304767 -0.22602786 -0.0754955
훌륭 -0.14756607 0.19752312 0.14074701 0.15091157 0.108089626 -0.22435066 -0.090595685 0.09206586 -0.14079908 -0.15118603 -0.194506 0.09822735 0.06663908 -0.086180404 0.10422973 0.058801092
너무나 -0.06897351 0.12852548 0.003911336 0.12759362 0.13185246 -0.10049747 -0.013959268 -0.13293108 -0.17277865 0.051445298 -0.11952457 0.04789268 0.02567368 0.020426003 0.17550763 -0.1618936
강추 -0.24849431 -0.19503453 0.16406088 0.07778952 0.1958731 -0.064205624 -0.20485017 -0.024444364 -0.16470991 -0.19089755 -0.08192329 0.29050675 0.19252358 -0.1886952 0.16326745 0.13329723
감 0.0114830965 0.10214394 -0.0058622505 -0.027395928 0.0075468943 -0.013971899 0.020772366 -0.119070806 -0.05407662 0.00052939873 0.038187772 0.0064115175 0.022883594 0.029668054 0.0038060786 -0.1439315
됨 -0.050155945 -0.09826546 0.09209215 0.052058116 0.15136364 0.018899156 -0.04075076 -0.28726178 -0.071227446 -0.107018575 -0.053067837 0.02801851 0.16670537 -0.14238864 0.16021961 -0.08904521
ㅡ 0.04411647 -0.044200033 -0.037677612 -0.023044473 0.03812192 -0.005956745 0.06828731 -0.1586962 0.07232029 0.022499735 0.034183796 -0.07718028 0.016135722 0.03177552 -0.05965246 -0.009730203
따뜻 -0.11362346 0.08207701 0.16182502 0.076843075 0.17661735 -0.07351039 -0.16952533 0.07266135 -0.165072 -0.09130917 -0.119888656 0.09852894 0.13453954 -0.16542199 0.19540372 0.05574857
빼 0.03904751 0.16720714 -0.13164224 -0.022407096 -0.07079205 -0.09717718 0.084736325 0.1290801 -0.0824073 0.13791302 0.021713108 -0.044279743 -0.073234856 0.19383763 -0.0016597552 -0.091556616
느끼 -0.074070595 -0.07759292 0.017200692 0.02676155 -0.02250428 0.088108756 -0.011659467 0.053065486 0.0034223082 -0.07418549 -0.037407164 0.12288724 -0.0057352385 -0.012414294 0.06027722 -0.04951194
해야 -0.011019626 0.05588126 0.034069568 0.01494744 -0.023284517 0.085993715 -0.06295617 0.098216586 -0.059498817 -0.06379976 -0.022966642 0.07672375 0.031359486 0.0027625605 0.072108336 -0.016110158
드 0.010434158 -0.26646984 -0.044509985 0.020256782 -0.037350286 -0.23725304 0.07764979 -0.4661379 -0.058134403 0.14424323 -0.042364445 -0.05071878 -0.056439143 0.001830591 -0.024973398 0.062103454
도대체 0.100339085 0.07882667 -0.08083415 -0.18238221 -0.1601834 0.01136745 0.13774544 -0.04509949 0.077987835 0.14140235 0.1153465 -0.12855776 -0.119755656 0.17908777 -0.02969896 -0.0063335733
어야 0.09560214 -0.16616134 -0.045296002 -0.04596795 -0.056379978 -0.09292311 0.036565743 -0.02396002 0.019297276 0.09664151 -0.033034485 -0.06337473 -0.119602755 0.0951105 -0.048322536 -0.039043214
답답 0.07610526 -0.07275114 -0.09588121 -0.049597006 -0.16955552 0.16256191 0.14709783 -0.08681335 0.11408372 0.10479343 0.10944381 -0.12542377 -0.11912915 0.07940636 -0.13551506 -0.17863962
마다 0.030815806 0.091878384 -0.037805934 0.05493803 0.008087039 -0.21549171 0.005309226 -0.10347508 -0.09344272 0.03850418 -0.07470622 -0.014865564 0.022513218 -0.036758076 0.02613774 -0.09913511
준다 -0.054927345 -0.2484274 0.07265929 0.03623284 0.09771685 -0.0016338545 -0.09713547 -0.43802652 0.03524319 -0.10787872 0.0069771307 0.06926348 0.1020105 -0.089766674 -0.0015238932 -0.048500556
글 0.053713594 -0.0204908 -0.03680692 -0.020677812 0.0038782037 0.1074913 0.034865744 -0.056836125 0.0018536096 -0.01018056 0.05108109 -0.028109843 0.018772498 0.028795164 0.034672707 -0.0282821
전쟁 -0.02986804 -0.22621036 0.05341056 0.0071371295 -0.048309635 0.12108179 -0.08187169 -0.13897587 0.046800304 -0.0152195925 -0.024162162 -0.007296329 0.03810938 -0.011039796 -0.052366614 -0.037187617
놈 -0.0074177193 0.18133144 -0.06877637 -0.06266648 -0.062200908 0.042729754 -0.0071691973 0.1956002 -0.03338044 0.01083557 0.04262403 -0.040082105 0.010589753 0.102467 -0.024627244 0.034626342
설정 0.07245161 -0.024936305 -0.046832077 -0.018290443 -0.05408826 -0.18969746 -0.0061944975 0.060947727 0.011864317 0.10211682 -0.059442937 -0.05958435 -0.11593252 0.057206556 -0.077999905 -0.037172604
무엇 0.0029007525 -0.3074535 0.05919733 0.060654484 0.070404924 -0.02335821 -0.048667904 -0.20887306 0.02259353 -0.016432988 0.019341532 -0.0072389194 0.0035707355 -0.046504445 -0.00015418998 0.04671584
수작 -0.24112733 -0.24257845 0.28550902 0.26339334 0.3221208 -0.24553268 -0.21646325 -0.17240924 -0.26619038 -0.25962135 -0.34741753 0.2878668 0.2799816 -0.34104443 0.27254403 0.24007288
만화 0.06983072 0.121522 -0.06620646 -0.07635541 0.011436624 -0.12325902 0.051831372 0.009443139 0.027434254 0.009671463 0.06830861 -0.04563637 -0.0774632 0.018831393 -0.02269063 0.097687855
흥미 -0.050897844 0.22885123 -0.00477829 0.018760085 -0.006646107 -0.041058253 0.09263784 0.15314291 -0.13995011 0.07125921 -0.08607303 -0.017802235 -0.05357621 0.12472671 0.039105136 -0.12708701
그저 0.021454055 -0.21740162 -0.0043877265 -0.06534259 -0.0036234828 0.23672646 0.034001365 -0.27131423 0.0037482416 0.054734815 0.11787588 0.013508168 -0.015676694 0.025819663 -0.031650018 -0.2263633
감정 -0.087216154 -0.11867594 0.08795289 0.042975895 0.022098904 -0.09760308 -0.09896116 -0.059603967 -0.09625334 -0.02624663 -0.105237976 0.09244253 0.08808804 -0.061679132 0.039318215 -0.07396324
미국 -0.0677872 0.030517578 -0.014388463 -0.04906426 0.040034976 0.0875312 0.02196218 -0.056992676 0.032947697 -0.04867093 0.064231664 0.07282591 0.017828474 -0.07292436 0.03349982 0.0120876245
신선 -0.042280298 0.110408105 0.03828172 0.12533644 0.116590284 -0.07205039 -0.08940136 0.09122715 -0.17042981 -0.007367701 -0.13657415 0.025593929 0.103736445 -0.072616436 0.07735997 0.06860767
행복 -0.15926878 0.115713514 0.15277858 0.08126815 0.12430421 0.062317852 -0.11696531 0.12423577 -0.10020459 -0.100323096 -0.09657812 0.106207855 0.1268518 -0.122264095 0.18528306 0.10581519
뻔 0.032297805 0.02747936 -0.030608036 -0.025177913 -0.08394839 0.15194345 0.05767088 0.071192876 0.031083787 0.03575662 0.09271991 -0.049923014 -0.04739972 0.058046915 0.0067001963 -0.040359106
형 -0.026602693 0.21481974 0.015917556 -0.022724934 0.052696705 -0.011951972 -0.0365422 -0.06315327 -0.111744806 0.044505376 0.055082977 -0.050616123 0.07859667 0.020881265 0.1352788 -0.03850149
앞 -0.015208228 0.2764747 -0.019605573 0.046590026 0.008227572 -0.13505664 0.015153503 0.22792038 -0.033592973 0.03133082 -0.087904535 0.09879672 0.011350357 0.051497955 0.039468326 0.029953346
허접 0.2206703 -0.11161455 -0.26487327 -0.1449514 -0.25712964 0.09990965 0.1896335 -0.16939026 0.13309045 0.3031244 0.150222 -0.20711608 -0.14187875 0.19803174 -0.17529537 -0.21212664
어도 0.04993106 0.122074164 0.010936962 0.054440793 0.0013612822 -0.078086965 0.045983184 0.058068413 -0.022317328 0.08612814 -0.021945722 -0.050819278 -0.047464352 -0.018592617 0.004296512 0.021772161
군 0.02637558 0.013012504 -0.020697113 -0.04358242 -0.05314707 0.0896167 0.048103683 0.25232306 0.032948274 -0.05562453 0.07369059 0.035418097 -0.08779361 0.10686061 -0.11930078 0.0012508008
시절 -0.057060465 -0.2662905 -0.033570558 0.030505076 0.024480458 -0.069533005 -0.050982993 -0.12965107 -0.08080488 -0.03514989 -0.07379743 0.018926283 0.015972793 -0.09918088 0.028498925 0.0006611205
관객 0.1311985 -0.2062683 -0.09081205 -0.0627107 -0.105911836 0.11536305 0.07442435 -0.14561512 0.117550135 0.110944055 0.16313069 -0.059240557 -0.0401147 0.11147344 -0.09449462 -0.15050308
배경 0.017128713 -0.018922308 0.025402376 0.0022757922 -0.05090165 0.07534746 0.038171407 -0.036834396 0.011016328 0.04506604 -0.03823625 0.041746378 0.043061845 0.030386101 0.042310998 -0.15833685
6 -0.006446126 0.06026575 0.0015474829 0.006053824 -0.0331776 -0.03179439 -0.0012056528 0.15679558 0.0469254 -0.033837717 -0.028263543 0.05050432 -0.027214104 0.060293317 -0.055628903 0.20355609
초반 0.10477298 -0.08287139 -0.03022009 -0.12825896 -0.07099138 0.08541984 0.074570015 0.0823138 0.15483491 -0.022806633 0.08172829 -0.081384495 -0.038011182 0.04485927 -0.14869751 0.14195403
사실 -0.019238068 0.09885715 0.100350745 0.018696347 0.013023865 0.060800854 -0.04574375 0.078219846 0.00017856504 -0.13669318 0.02500403 0.030460127 0.0288503 -0.09527452 -0.0037200465 0.1703994
웃음 -0.05921082 0.07763503 0.02677394 0.055378836 0.03981057 0.021332884 0.03004729 0.057030812 -0.06678583 0.0511489 0.00059597584 0.0053683175 -0.0085568195 0.02964427 0.034783807 -0.110359795
답 -0.002553251 -0.029328795 -0.048904285 0.038291197 0.03511133 -0.023672625 0.017726613 -0.14299405 -0.12091134 0.027211113 -0.05713658 -0.020136256 0.0030337018 -0.03626853 0.0014048766 -0.057629496
엄청 0.016082993 -0.1283972 -0.011749421 0.09530754 0.0072608734 -0.13040014 0.05083166 -0.23629937 -0.08424037 0.060282037 -0.13024887 0.029665645 -0.04124991 -0.069929615 0.077147834 -0.13231134
더라 -0.08928276 -0.2931794 0.090980195 0.07663748 -0.026137967 0.028355688 -0.09050428 0.015017124 0.03475992 -0.07212007 -0.07040162 0.17519352 -0.01748354 -0.06867055 -0.080757976 -0.010960045
라니 -0.02002283 -0.071073346 0.03328307 0.021581 -0.027940983 0.1451505 -0.046984136 0.03814856 0.0098709725 0.015036676 0.0059689684 0.07763857 0.034821045 -0.004525486 -0.015039401 -0.050346736
질 0.11847317 -0.091265485 -0.122879334 -0.100515835 -0.114108525 0.07083343 0.07568522 0.04556388 0.12366211 0.047314916 0.08753672 -0.022807527 -0.102051996 0.1226197 -0.15247041 0.03662416
자신 0.04853071 -0.15780212 0.009129455 -0.024634289 -0.06429674 0.05781891 -0.027464133 -0.21944317 0.015645863 0.04615187 0.07277957 -0.0039421017 -0.029575339 -0.034285195 -0.03664226 -0.011015952
추억 -0.085342675 -0.024244165 0.023186434 0.07387275 0.08938916 -0.23505239 -0.028010001 -0.20083778 -0.13938819 -0.024353947 -0.16755901 0.054289553 0.05293421 -0.061033912 0.11948765 -0.002571013
캐스팅 0.030114798 -0.03833205 -0.1014798 -0.017689759 -0.088970326 -0.015168712 0.11906213 -0.030242005 0.053096112 0.06384477 0.06457065 -0.124569185 -0.10913355 0.13553967 -0.04096832 -0.046012256
첨 0.043927632 -0.020604445 0.009268791 -0.019819051 -0.034388326 0.08091796 0.008048471 -0.010408579 0.06359724 0.01254563 0.071927175 0.0047907997 -0.035530575 0.025534851 0.014676604 -0.026355267
멋있 -0.12532662 -0.08497113 0.16758284 0.25354818 0.103751354 -0.1748194 -0.1811719 0.1183578 -0.13910024 -0.09718684 -0.20663948 0.13681382 0.06253148 -0.1123824 0.08323067 0.08493866
류 0.120167896 -0.06512955 -0.057634942 0.016557239 -0.050697897 0.028045809 0.07567603 -0.03684286 0.10168637 0.09976619 -0.06562297 -0.026098209 -0.07663512 0.101717666 -0.081770875 -0.08389923
어색 0.12214587 -0.11778286 -0.10952429 -0.111028686 -0.19926375 -0.0132495435 0.09992392 -0.076252565 0.15368819 0.14077222 0.083522335 -0.16909215 -0.19496 0.108975574 -0.15560293 0.04052359
시나리오 0.08480901 0.012079203 -0.066661075 -0.08414823 -0.12588021 -0.003088697 0.068553515 -0.05914035 -0.016796444 0.15919803 0.08371666 -0.12071257 -0.110443376 0.12598415 -0.039056107 -0.17063664
머 0.062143125 -0.22321288 -0.009594039 -0.014996914 -0.09724349 0.016055854 0.020293836 -0.12690623 0.08337397 -0.004222112 0.05499999 0.00018914793 -0.0539743 0.0009966907 -0.1380428 0.01583835
밖에 -0.079104364 0.16865283 0.06729274 0.05645445 0.043767568 -0.0777902 -0.009216044 0.04698671 -0.03763157 -0.056485623 -0.06761364 0.015388867 0.010353739 -0.041376013 0.010458086 0.0687163
OOO 0.1936297 -0.13770916 -0.094360515 -0.22732812 -0.18499775 0.25318474 0.09411854 -0.07641054 0.22489852 0.028082876 0.23925854 -0.059884734 -0.17375226 0.25364676 -0.21468307 -0.17023946
슬프 -0.11559333 -0.049175408 0.18522303 0.035891894 0.110780664 0.1568125 -0.13238278 0.20307684 -0.058960732 -0.15224569 -0.025911713 0.19221577 0.12043374 -0.18050605 0.09301714 0.0012061186
정신 0.02566485 -0.0023547157 -0.038175665 -0.091159634 -0.03501731 0.0135644 0.05910752 -0.12000982 0.062278498 0.04484086 0.025339633 -0.072768226 -0.044459525 0.054607593 -0.02174749 -0.07311265
분위기 -0.019618629 -0.096062966 0.047669232 0.068176456 -0.012370176 -0.17517197 0.0016536994 -0.027697168 -0.096928634 0.019802937 -0.08474095 -0.00250742 -0.010250042 -0.03634418 -0.023748176 0.028707633
소름 -0.13085097 0.16278556 0.09622122 0.1364413 0.14429307 -0.11608498 -0.13533632 0.09943922 -0.1239919 -0.136028 -0.059045974 0.12608634 0.0835322 -0.075592816 0.11892641 0.15675734
멋진 -0.08345756 -0.19739985 0.07768119 0.083918214 0.1428753 -0.01922068 -0.1017625 -0.11575797 -0.08263329 -0.074006625 -0.048024092 0.111650966 0.14242524 -0.2068824 0.07812559 0.07235393
힘들 0.047948368 -0.26455215 -0.03347272 -0.06293405 -0.025194943 0.17235866 0.01077764 -0.17354004 0.19911622 -0.0499245 0.08737164 -0.03759796 -0.022724673 0.009077418 -0.058011364 -0.059592523
오늘 -0.003799547 -0.0064144144 -0.014238249 0.006178871 0.029575543 -0.01764418 -0.06541618 0.078001514 0.0337215 -0.014124592 0.0026245334 -0.03619856 -0.015683899 -0.04150932 -0.05505491 0.13863824
어이없 0.26128358 -0.05407572 -0.24486594 -0.20436844 -0.3311771 -0.03482303 0.29588774 0.07560946 0.20982389 0.2663931 0.10705806 -0.30119145 -0.3773076 0.35447487 -0.09653901 -0.0077361884
봐서 0.01627903 0.07459111 -0.022762306 0.054429296 -0.0037644259 0.045828294 -0.06564212 0.15516801 -0.0517049 0.01710144 -0.10845068 -0.017132029 0.039553944 0.006915384 0.014272004 0.051131085
잡 -0.005832709 -0.13654245 0.036469463 -0.0022622456 0.0069100102 0.005370619 -0.022417441 -0.023539223 0.08976439 0.002591059 -0.020509988 0.064992025 0.014667821 0.015876396 -0.042269003 -0.041131806
구성 -0.018241644 0.14406627 0.04606439 -0.017137637 0.060759034 0.07564198 0.03821767 -0.0041642506 0.004622454 -0.01776937 0.039721422 0.006861028 0.09030781 0.013576305 0.057310633 -0.04278726
엄마 -0.09687643 -0.107484296 0.050221927 0.108850166 0.06485525 -0.0066948333 -0.06424736 -0.02427605 -0.09437006 -0.041608974 -0.07795024 0.046512406 0.056308858 -0.07477102 0.16217081 -0.051908772
함께 -0.11504685 0.09895904 0.068981536 0.0864019 0.07636148 -0.02631537 -0.016255178 -0.0053137564 -0.13393733 0.048360378 -0.07142027 0.08608367 0.024594964 -0.038725287 0.11182302 -0.13202454
문제 0.12962228 0.1671264 -0.09536425 -0.10788035 -0.17669496 0.021525126 0.12831412 0.23297594 0.07785709 0.038772564 0.13216695 -0.024305314 -0.09065051 0.21889916 0.043118708 -0.040946644
위해 0.1232322 0.23662014 -0.064294964 -0.060430307 -0.036680844 0.013901073 0.076270185 0.12440327 0.040392447 0.08952962 0.099485494 -0.11792103 -0.052599177 0.09777794 -0.011308279 -0.06013385
졸작 0.23409839 -0.30291906 -0.24295038 -0.22687706 -0.28670654 0.33767495 0.21219997 -0.15110701 0.23262663 0.14977963 0.21540345 -0.18262349 -0.22357407 0.23304497 -0.33889103 -0.28526545
잊 -0.09268265 -0.23789369 0.14680807 0.12470332 0.1554896 -0.14693746 -0.22180109 -0.011550809 -0.036581688 -0.19507197 -0.13927948 0.15385544 0.052212156 -0.2547508 0.056944475 0.51790917
이딴 0.32723978 -0.18893965 -0.32697132 -0.25534156 -0.26544872 0.040693123 0.25331506 -0.20734788 0.27326706 0.31432873 0.25573942 -0.3596863 -0.28955105 0.3417625 -0.3249847 -0.07868266
등 -0.045973267 0.19326198 0.1130139 0.004358068 0.08110277 -0.12350706 -0.06509977 0.052708607 -0.022672318 -0.11460979 0.02858321 0.05322564 0.11152453 -0.042900164 0.059865564 0.09607286
집 -0.035679366 -0.06986435 -0.028456505 0.023772562 -0.007473036 0.05073841 -0.029266153 -0.10262791 0.009055265 0.0437232 0.05197526 -0.00041431066 0.0007626159 0.0047168722 0.018340912 -0.07029737
유쾌 -0.2231664 0.30847424 0.17148805 0.16176328 0.12991062 -0.02119533 -0.1910977 0.26286563 -0.24294081 -0.08361078 -0.12555942 0.17832914 0.14965335 -0.102741435 0.29256943 -0.089063324
뻔한 0.08982974 -0.38717568 -0.05322236 -0.0321107 -0.10204882 0.17191726 0.033408314 -0.13829885 0.16926552 0.09632681 0.06480629 -0.078960836 -0.081062004 0.08263048 -0.11315079 -0.0979577
킬링 -0.033771794 0.12381172 -0.013428137 -0.01934799 -0.037512004 0.028473288 -0.050550535 -0.047323626 0.027633281 -0.05816655 0.03290486 -0.018841995 0.01443316 -0.035025988 0.023518262 0.11100433
스러운 0.012584728 -0.16778357 0.029428378 -0.012772363 0.04468491 -0.13091002 -0.01314059 -0.25491753 -0.0046333526 0.028727327 -0.062163867 0.022689197 0.05639324 -0.076264136 0.04280086 0.04545671
결국 0.072152704 0.020520778 -0.031119755 -0.028173355 0.03800128 -0.021785794 0.06897871 0.0034485243 -0.015393447 0.035760973 -0.019164437 -0.015846455 -0.023867983 -0.0073046726 0.032041956 -0.009953858
낫 0.011005415 0.20872276 -0.052041475 -0.025008917 0.041427933 -0.102055006 0.09388873 0.03277741 -0.021878 0.014706702 0.04831786 -0.048838012 0.08624208 0.015655845 0.08620606 0.007243367
한데 0.02482596 0.24420404 -0.027538488 0.017133048 -0.059105597 -0.00013092955 0.06719258 0.17467184 0.02515285 -0.011383045 0.04359875 -0.07416913 -0.015534497 0.050728682 0.024184799 0.0009812672
나요 0.035585225 -0.07482165 0.001338306 -0.017457921 0.025397444 -0.06527241 -0.06322762 -0.09623944 -0.002972454 -0.05677418 -0.0042813206 0.02934972 -0.018387262 -0.03770534 0.014691646 0.12009044
뭘 0.07534646 0.023910647 -0.11273219 -0.08899712 -0.10909078 -0.021825189 0.06612148 -0.05013248 0.12153954 0.041098595 0.11335086 -0.065546446 -0.046497818 0.084745996 -0.14690705 0.015482872
소리 0.009907017 -0.0025457463 0.0034788775 -0.0054445798 -0.006181446 -0.0012257637 -0.009498103 -0.06757174 0.037675105 0.0053572073 0.0035122416 -0.06368646 0.005951127 0.0028563302 -0.030488841 -0.013622305
간 -0.020963918 0.03809453 0.032052163 0.04474894 -0.009377653 0.06662154 0.02371256 0.05063565 -0.09687664 -0.01489973 -0.06335947 -0.0013923649 0.042401537 0.006257951 -0.040309243 -0.12356951
